#include "transformer_defines.h"
#include "transformer_layers.h"
#include <hls_stream.h>


//===============================  Synthesis Functions ============================================================
//=======================================================================================================================

void load_ecg_data_to_stream(hls::stream<float> &stream, float ecg_data[198]) {
    for (int i = 0; i < 198; i++) {
		stream.write(ecg_data[i]);
    }
}

void load_rr_data_to_stream(hls::stream<float> &stream, float rr_data[2]) {
    for (int i = 0; i < RR_FEATURES; i++) {
		stream.write(rr_data[i]);
    }
}

void ecg_transformer(
    hls::stream<float> &output, 
    float ecg_data[INPUT_LENGTH], 
	float rr_data[RR_FEATURES]) {

	#pragma HLS INTERFACE axis port=output
	#pragma HLS pipeline off
	
	hls::stream<float> main_data_stream("main_data");
	#pragma HLS stream variable=main_data_stream depth=1056

	hls::stream<float> temp_stream1("temp1");
	#pragma HLS stream variable=temp_stream1 depth=1056

	hls::stream<float> temp_stream2("temp2");
	#pragma HLS stream variable=temp_stream2 depth=1056

	hls::stream<float> rr_stream("rr_data");
	#pragma HLS stream variable=rr_stream depth=32

    //================================================================================================================================
    static float patch_conv_weights[3][1][1][16] = {
        {
            {
                {1.09570241f, 0.277493626f, -0.23503691f, 0.357179344f, -1.05053926f, 0.288536727f, 0.417788684f, -0.671564043f, 0.191188961f, 0.0367525667f, -0.823757589f, 0.0939335302f, 0.329332292f, -0.0904000774f, -0.140377745f, 0.630393624f}
            }
        },
        {
            {
                {-0.203791037f, -0.111940406f, 0.0287994538f, -0.315283716f, -0.223894492f, 0.186237156f, 0.255633175f, -0.0456716046f, 0.299886197f, -0.24689661f, 0.0892803669f, 0.136248842f, -0.0556033365f, -0.106487252f, -0.146287054f, 0.219240427f}
            }
        },
        {
            {
                {-0.776415348f, -0.0323160663f, -0.201097965f, -0.492488682f, 1.04319859f, -0.720078826f, 0.00768917287f, 0.736361265f, -0.682000935f, 0.184270129f, 0.458340228f, 0.140237153f, 0.223253429f, 0.324120551f, 0.520295382f, -0.787169456f}
            }
        }
    };

    static float patch_conv_bias[16] = {
        0.0635092258f,
        0.106246822f,
        -0.00427282043f,
        -0.0244267639f,
        -0.0439977907f,
        -0.0118104285f,
        0.0645681769f,
        -0.0660222322f,
        -0.0497008264f,
        -0.000440956326f,
        -0.136302292f,
        -0.00388595043f,
        0.0357479863f,
        -0.0364385433f,
        0.036293745f,
        0.118715987f
    };

    static float pos_embeddings[66][16] = {
        {-0.152291253f, 0.456930459f, 0.0743867829f, -0.189392596f, 0.142550021f, 0.0480322912f, -0.281817317f, 0.409384221f, -0.407559782f, -0.433281869f, -0.154490277f, 0.0878810734f, -0.283361882f, -0.289340973f, 0.31183821f, 0.160346687f},
        {-0.0989181846f, 0.447378278f, 0.0995236263f, -0.180053905f, 0.125908002f, -0.0183721762f, -0.234043524f, 0.259949863f, -0.576943696f, -0.457734615f, -0.204803258f, 0.17760922f, -0.252075881f, -0.28079927f, 0.519098163f, 0.0870913193f},
        {-0.0969622061f, 0.411849529f, 0.122297764f, -0.205418378f, 0.127694219f, -0.0396897197f, -0.213594198f, 0.220765129f, -0.495732456f, -0.621481538f, -0.115452819f, 0.188190475f, -0.191385597f, -0.233085096f, 0.434730917f, 0.170334131f},
        {-0.0950850025f, 0.322280675f, 0.0662856251f, -0.383806497f, 0.138093874f, 0.000626799476f, -0.246207401f, 0.270275086f, -0.034710031f, -0.210849509f, -0.256782323f, -0.00198896066f, -0.203000069f, -0.110021658f, 0.479777992f, 0.0393009149f},
        {-0.0653510541f, 0.303869367f, 0.0550957844f, -0.208749458f, 0.138070032f, -0.0800983831f, -0.271827132f, 0.348983794f, 0.0123451399f, -0.444168717f, -0.271036834f, 0.0473907627f, -0.195882007f, -0.0690455586f, 0.327463448f, 0.0821748152f},
        {-0.15382874f, 0.0776992217f, -0.299546123f, 0.00381561555f, 0.121640585f, 0.0166401621f, -0.279435456f, 0.277140886f, -0.454058856f, -0.0490931086f, -0.210932791f, 0.202582777f, -0.0999762192f, 0.0212032646f, 0.281356007f, 0.0450476445f},
        {-0.099113822f, 0.218563244f, 0.0738190934f, -0.123301461f, 0.119616032f, -0.0648001507f, -0.310677171f, 0.333729774f, -0.0453817658f, -0.440104514f, -0.185041919f, 0.0590412281f, -0.207321152f, 0.117501318f, 0.316521257f, -7.66550511e-05f},
        {-0.141189024f, 0.400539398f, 0.0974788666f, -0.335237265f, 0.136512175f, -0.174325898f, -0.335881919f, 0.204391167f, 0.00277683791f, -0.430216551f, -0.124781244f, 0.10817717f, -0.201033846f, 0.155458122f, 0.109866947f, 0.0445301645f},
        {-0.149727702f, 0.273344249f, 0.139705509f, -0.362025648f, 0.0455164537f, 0.0286320243f, -0.264269114f, 0.127338275f, -0.616087854f, -0.248295873f, -0.0128445085f, 0.147722632f, -0.209802464f, 0.118788488f, 0.54984045f, -0.0659086406f},
        {-0.280751884f, 0.335526317f, 0.14553234f, -0.397000223f, 0.216252446f, -0.0774085224f, -0.447612166f, -0.0862133428f, -0.560158551f, -0.217071474f, 0.110362962f, 0.131393701f, -0.0676646158f, 0.478427917f, 0.286700964f, 0.111555681f},
        {-0.248983666f, 0.296254396f, 0.27059257f, -0.109742448f, 0.171110302f, -0.163303405f, -0.539070487f, -0.247158691f, -0.431696624f, -0.237714916f, 0.222298861f, 0.100177318f, -0.0215528924f, 0.516729474f, 0.223756239f, 0.147677213f},
        {-0.356480032f, 0.374393165f, 0.278346628f, 0.0225270558f, 0.243495479f, 0.0283281263f, -0.477576435f, -0.21724005f, -0.223257646f, -0.341948301f, 0.0602776892f, 0.11743205f, -0.0999087468f, 0.522681117f, 0.235826537f, -0.013701261f},
        {-0.286212206f, 0.559693575f, 0.19344902f, -0.252431333f, 0.273071438f, -0.0545260571f, -0.375990778f, 0.00299746636f, 0.0392380618f, -0.261572063f, -0.091550082f, -0.0275491811f, -0.176440209f, 0.304680109f, 0.387559354f, -0.0881439969f},
        {-0.211718321f, 0.538713813f, 0.256599545f, -0.0427062176f, 0.316233337f, -0.132457092f, -0.307657987f, 0.0321984589f, -0.201569274f, -0.214739338f, -0.166731298f, -0.0294452999f, -0.163869068f, 0.197974473f, 0.281737119f, 0.00565392198f},
        {-0.333817273f, 0.36261037f, 0.109346583f, -0.0428336151f, 0.263191521f, -0.0832894444f, -0.252657771f, -0.0174402446f, -0.172219425f, -0.222441629f, -0.156323537f, -0.0933557376f, -0.143861055f, 0.275291979f, 0.219110608f, -0.0963974744f},
        {-0.321914822f, 0.281994343f, 0.162977204f, 0.00333352387f, 0.372878879f, -0.0362197794f, -0.286958486f, 0.0932491347f, -0.266406178f, -0.308141887f, -0.0814578608f, -0.0467090644f, -0.233283058f, 0.212488517f, 0.234898791f, -0.0962076411f},
        {-0.343211532f, 0.233144686f, 0.156053081f, 0.0735324621f, 0.483091891f, -0.00527141243f, -0.231051475f, -0.0385140963f, -0.343828559f, -0.265032738f, -0.134372488f, -0.189643279f, -0.24665314f, 0.435067594f, 0.357087463f, 0.00105962052f},
        {-0.227539077f, 0.24456723f, 0.0348908901f, -0.0528080948f, 0.276949614f, 0.0603750311f, -0.14861764f, -0.140164152f, -0.476425797f, -0.15528217f, -0.0190048851f, -0.228472918f, -0.324345529f, 0.408145964f, 0.326853067f, -0.0155167915f},
        {-0.120446496f, 0.445831805f, 0.0433178209f, 0.0753084198f, 0.0516772121f, 0.0950204208f, -0.109935954f, -0.101735547f, -0.394800693f, 0.101327255f, 0.0596853085f, -0.458032906f, -0.326012075f, 0.248636216f, 0.15776749f, -0.15621157f},
        {-0.070593968f, 0.272834778f, -0.00692862598f, 0.0259115212f, 0.124277063f, 0.115808628f, -0.0878487453f, -0.0175914057f, -0.387124836f, 0.0885267034f, 0.00884905737f, -0.439864159f, -0.294032842f, 0.18356061f, 0.108864367f, -0.20498164f},
        {-0.0717869252f, 0.228527889f, 0.0222288165f, 0.0611843728f, 0.0988562629f, 0.152340725f, -0.049720902f, -0.0269857887f, -0.454148173f, 0.0963044539f, 0.0791505054f, -0.495646834f, -0.343692929f, 0.12881662f, 0.149096683f, -0.14210403f},
        {-0.0986944661f, 0.300465643f, 0.1814311f, -0.0396184213f, 0.128740624f, 0.0216272771f, 0.0147713851f, 0.0433307588f, -0.630482435f, 0.182208151f, 0.0146380002f, -0.485414267f, -0.241023451f, -0.017449107f, 0.208110556f, -0.116168164f},
        {-0.154613391f, 0.0232685525f, 0.218004167f, -0.197789818f, 0.148277402f, 0.00817606039f, 0.102662601f, 0.104862802f, -0.596300781f, 0.191158041f, 0.133742273f, -0.315852851f, -0.357721746f, -0.0144218439f, 0.399624497f, -0.16749078f},
        {-0.124839351f, -0.00955796055f, 0.28535223f, -0.224751204f, 0.187133372f, 0.0756408796f, 0.0340171829f, 0.158078417f, -0.492296398f, 0.177827135f, 0.0940922126f, -0.237603799f, -0.255968094f, 0.0684137866f, 0.334399432f, -0.190094575f},
        {-0.0614404455f, -0.0397820398f, 0.444322377f, -0.223302871f, 0.0382081792f, 0.097475186f, 0.0248147976f, 0.107357189f, -0.404944718f, 0.198066399f, 0.103354551f, -0.228159651f, -0.0510024689f, -0.0871801972f, 0.280998081f, -0.142450318f},
        {-0.0450779982f, 0.00157653179f, 0.543575406f, -0.190506592f, 0.0221105609f, 0.0185943097f, -0.0399639495f, 0.169414029f, -0.292085856f, 0.104957804f, 0.0665543601f, -0.178804755f, 0.0278806742f, -0.0755904764f, 0.333900362f, -0.0966297835f},
        {0.0331998356f, 0.0413490869f, 0.394057691f, -0.0106212245f, -0.0543258637f, 0.0162038673f, -0.193955854f, 0.0784809515f, -0.105043568f, 0.467187732f, -0.0659590587f, 0.0650315881f, -0.167385638f, -0.460922927f, -0.20113948f, -0.0640758052f},
        {-0.00923067331f, -0.1391927f, 0.295603722f, -0.00243675685f, -0.0128796399f, -0.158909783f, -0.010824264f, 0.0699396953f, 0.0109864417f, 0.57703203f, 0.0312497187f, 0.0393369831f, -0.0878477097f, -0.305122405f, -0.273131669f, 0.0506965816f},
        {-0.00734623708f, -0.100470133f, 0.29666853f, 0.0810415149f, -0.0336446576f, -0.151736572f, -0.103976309f, 0.0757188573f, 0.0420706458f, 0.344911993f, 0.128594741f, -0.0572105385f, 0.210059375f, -0.301869452f, -0.191101983f, -0.0353736542f},
        {-0.0323972367f, -0.0814963654f, 0.187421516f, 0.0893573463f, -0.054828994f, -0.252210796f, 0.0117076607f, 0.0683205798f, 0.176908821f, 0.26705569f, 0.0516882055f, 0.0310629085f, 0.191659003f, -0.392991304f, -0.354811043f, 0.0448269248f},
        {-0.0103376526f, -0.114435211f, -0.0329497717f, 0.153208151f, -0.121602587f, -0.214665741f, 0.1818766f, 0.000116804687f, 0.309222549f, 0.107480794f, -0.00901182089f, 0.0894408748f, 0.405082256f, -0.552129388f, -0.329910845f, 0.222992346f},
        {0.255213231f, -0.166616991f, -0.267330587f, -0.544826925f, -0.293835551f, -0.00670442032f, -0.0405583903f, 0.0582258031f, 0.189636931f, -0.0738429725f, -0.0560047738f, 0.79671967f, -0.0474454202f, -0.282665849f, -0.026816627f, 0.295270145f},
        {0.162054643f, -0.682057202f, -0.0698396862f, 0.945374072f, -0.394794464f, 0.507105529f, 0.0675846562f, -0.591943741f, 1.32397854f, -0.120741658f, -0.285482854f, -0.145130172f, 0.402296692f, -0.584910631f, -0.246775568f, 0.778887033f},
        {0.384101331f, -0.467352003f, 0.892386258f, -0.81097132f, -0.227512449f, 0.851850629f, -0.207596511f, -0.289434999f, 0.810650229f, -0.191250458f, 0.907864988f, 0.657974303f, 0.574021995f, -0.568890691f, -0.861816287f, -1.49592137f},
        {0.129126891f, -0.522633195f, 1.12317622f, -0.628468215f, 0.0355285518f, 0.900654733f, -0.750451863f, 0.0440842137f, 0.695753098f, -0.327743888f, 1.2978493f, 0.561388195f, -0.0561745055f, -0.423971206f, -1.00498962f, -1.21840668f},
        {0.294313699f, -0.395597845f, 0.891100645f, -0.705362737f, -0.587913573f, 0.595612168f, 0.100183025f, 0.622149408f, 0.258872658f, -0.422693998f, 1.24126458f, 0.770714939f, 0.313622445f, -1.23407543f, -0.385387301f, -1.60804403f},
        {0.37407133f, -0.238736212f, 0.222878829f, -0.192900926f, -0.618306041f, 0.498441279f, 0.0965255052f, 0.695090592f, 0.370251179f, -0.500852466f, 0.536025584f, 0.43450287f, 0.120445713f, -0.468708694f, -0.335713774f, -1.20406079f},
        {-0.503824472f, -0.201994255f, -0.532862961f, 1.38818991f, 0.463577658f, -0.594751298f, 0.244906157f, -0.044884f, 0.53350848f, 0.0880874544f, -0.0958506614f, -0.707750261f, 0.253807545f, 0.169077933f, 0.264837831f, 0.422796965f},
        {1.04988611f, -0.793964982f, -0.749042988f, -0.387015343f, -1.28860176f, -0.00342984917f, 1.35373008f, -0.382395476f, 0.205445886f, 0.116307534f, -0.572819352f, 0.785796225f, 1.04971874f, 0.19339411f, 0.00817855541f, 0.509400368f},
        {0.400665253f, 0.140899643f, 0.34818393f, -0.183754027f, -0.690304816f, -0.0942160934f, 0.310019374f, -0.146963745f, -0.0100089135f, 0.0359548889f, -0.148933172f, 0.178664625f, 0.367025316f, -0.517637253f, 0.0360333696f, 0.0460241809f},
        {-0.0267000422f, 0.0687787235f, 0.160896167f, -0.395595312f, -0.365309238f, 0.0431223772f, 0.23362565f, 0.0855936855f, 0.286140352f, -0.374123424f, -0.373515785f, 0.350900948f, 0.415082067f, 0.359019697f, -0.138692498f, -0.074294731f},
        {0.092813544f, 0.0823220089f, 0.0766036138f, -0.155840382f, -0.504779756f, -0.0895005912f, 0.537931263f, 0.0634627864f, 0.460997015f, -0.0817222893f, -0.335315734f, 0.19544141f, 0.68620646f, 0.0658598393f, -0.465763479f, -0.037704926f},
        {-0.215504512f, 0.0378922187f, -0.108041614f, -0.100758731f, 0.122105174f, -0.592421651f, 0.115426436f, -0.10584449f, -0.0240083802f, -0.32896027f, -0.413316756f, 0.408228427f, 0.257042795f, 0.308798432f, 0.136674866f, 0.379429638f},
        {-0.210852981f, 0.0258554779f, -0.309193671f, -0.0607144199f, 0.0056584822f, -0.349567831f, 0.355635256f, -0.200966194f, 0.28269878f, -0.0887902975f, -0.518636882f, 0.315853924f, 0.736577928f, -0.0122152185f, 0.288367122f, 0.473654926f},
        {-0.174578249f, 0.0152095277f, 0.0106559405f, -0.171325982f, 0.23746042f, -0.650971055f, 0.120903969f, -0.176179543f, -0.0682487488f, -0.0765749067f, -0.166014627f, 0.359636217f, 0.17860736f, 0.215703607f, 0.448786944f, 0.45479539f},
        {-0.246349603f, 0.0411852337f, 0.219913289f, -0.23395507f, 0.286209732f, -0.423216462f, 0.0370731242f, -0.230152965f, -0.410479218f, -0.0190631673f, -0.264821231f, 0.330272645f, 0.18377164f, 0.44647494f, 0.308569968f, 0.527602375f},
        {0.115764149f, -0.12836197f, 0.334321439f, -0.191257358f, -0.0446660332f, -0.0151111605f, 0.138603315f, -0.277029842f, -0.641931415f, 0.611537993f, -0.31848976f, -0.278161824f, 0.667989016f, 0.472330481f, 1.24705541f, 0.079163596f},
        {-0.313539118f, -0.188523367f, -0.717769742f, 0.156300053f, -0.0122218104f, -0.304844052f, 0.591059089f, -0.242367193f, 0.191219762f, 0.444341958f, -0.222114161f, -0.02552565f, 0.828891456f, -0.108239338f, 0.619729102f, 0.0784970671f},
        {-0.214654922f, -0.163494155f, -0.832160175f, 0.328447878f, 0.149322554f, -0.250014663f, 0.67419219f, -0.19317247f, 0.140596136f, 0.825048268f, -0.20740734f, -0.0882122144f, 0.937872648f, -0.197272465f, 0.573649287f, 0.0471953265f},
        {-0.245524868f, -0.135642231f, -0.655447662f, 0.429331005f, 0.138187855f, -0.330191374f, 0.628390253f, -0.214585885f, 0.109022394f, 0.809378862f, -0.302534014f, -0.0878333449f, 0.8931005f, -0.184415817f, 0.617399096f, 0.0482183807f},
        {-0.112802804f, -0.116207942f, -0.779712558f, 0.347248286f, 0.174396008f, -0.323881775f, 0.517187476f, -0.332755446f, 0.156077698f, 0.776989698f, -0.113393448f, 0.0146737108f, 0.767858922f, 0.0244155601f, 0.178582877f, 0.0642186105f},
        {0.00037506278f, -0.0845976025f, -0.845527351f, 0.327801645f, 0.116726689f, -0.401361883f, 0.393469721f, -0.326015413f, 0.0360303782f, 0.981348932f, -0.126454219f, -0.0878484175f, 0.747029662f, 0.100629732f, 0.116859801f, 0.00322502595f},
        {-0.0661493018f, -0.058603052f, -0.834326804f, 0.322887123f, 0.235287949f, -0.345438838f, 0.44849959f, -0.360172361f, 0.0969665721f, 0.948053837f, -0.020784134f, -0.0551028661f, 0.737695336f, 0.223773763f, 0.111113302f, 0.123938501f},
        {0.0534757972f, 0.00316028646f, -0.600350618f, 0.315815777f, 0.0415767618f, -0.22039713f, 0.25713557f, -0.44437927f, 0.0170857348f, 0.746870756f, -0.0694970265f, -0.162369683f, 0.163116232f, 0.248845816f, -0.246483997f, 0.132782087f},
        {0.10847722f, 0.0400836915f, -0.519068897f, 0.288944185f, 0.0810986385f, -0.213525638f, 0.135895714f, -0.425068855f, -0.0220827609f, 0.656324089f, -0.0218027029f, -0.127361044f, 0.170532212f, 0.282568097f, -0.308782905f, 0.169340596f},
        {0.279202968f, -0.149298042f, -0.412305683f, 0.249022037f, 0.0217848085f, -0.172047243f, 0.184791341f, -0.373286843f, -0.0515070073f, 0.441331118f, -0.0180609394f, -0.189691871f, -0.121344894f, 0.148891047f, -0.451719135f, 0.284497708f},
        {0.274570584f, -0.144539803f, -0.436481804f, 0.20355314f, 0.000596905127f, -0.111584514f, 0.157295391f, -0.374387026f, -0.0140775032f, 0.502273917f, 0.138549179f, -0.144384548f, -0.172359124f, 0.164129138f, -0.507125139f, 0.336313456f},
        {0.332059592f, -0.10033083f, -0.324624866f, 0.163291976f, 0.0569601208f, -0.125572383f, 0.252107859f, -0.388626009f, -0.0784252211f, 0.452322304f, -0.0898047239f, -0.152094766f, -0.177979842f, 0.305511028f, -0.356986076f, 0.284868211f},
        {0.250524312f, -0.13908571f, -0.630333543f, -0.0034203981f, 0.176460028f, -0.0878145844f, 0.380572408f, -0.283510596f, 0.00673519773f, 0.150677368f, -0.121662274f, -0.254628479f, -0.230527088f, 0.379150033f, -0.226898879f, 0.0496978015f},
        {0.334870964f, -0.178794578f, -0.427610099f, 0.166766405f, 0.231015116f, -0.106470823f, 0.296231568f, -0.25603202f, -0.0287159532f, 0.187945947f, -0.0286693405f, -0.28252092f, -0.197477832f, 0.327681571f, -0.173686758f, 0.0731971562f},
        {0.328813016f, -0.0973267928f, -0.358738273f, 0.0677279532f, 0.192544624f, -0.0936528742f, 0.280743212f, -0.186197832f, 0.000763087533f, 0.110066272f, -0.0453822091f, -0.281343371f, -0.232204929f, 0.346144259f, -0.0540561527f, 0.0283900648f},
        {0.183914945f, -0.141166836f, -0.275676489f, 0.00532771694f, 0.150565401f, -0.0655008852f, 0.212903678f, -0.12887381f, -0.225273162f, 0.154857934f, -0.0317375585f, -0.232911348f, -0.268384635f, 0.285799742f, -0.17149958f, -0.0487701409f},
        {0.246869668f, -0.156880006f, -0.282056749f, 0.0200589914f, 0.123324111f, 0.0452179313f, 0.137168214f, -0.0463022403f, -0.236834928f, 0.126854047f, -0.00352026056f, -0.253228843f, -0.289528996f, 0.38877368f, -0.099094674f, -0.0742881671f},
        {0.45751825f, -0.0680749565f, -0.0417442471f, 0.0822665095f, -0.639329851f, 0.255916327f, -0.205809951f, 0.016919462f, -0.139093041f, -0.261134237f, 0.223852426f, 0.213877231f, -0.34442541f, 0.145860434f, -0.0785181075f, -0.0925293118f},
        {0.50915134f, 0.0421758443f, 0.11596185f, 0.0352223217f, -0.45215553f, 0.320810616f, -0.224540338f, -0.0559373088f, -0.122126594f, -0.284120381f, 0.191858038f, 0.14047347f, -0.39209798f, 0.120998383f, -0.12743479f, -0.0665426776f},
        {0.450616986f, -0.000585092232f, -0.00763193378f, 0.494187504f, -0.488925964f, 0.122463554f, -0.731496036f, 0.164225817f, 0.150363401f, -0.467011303f, 0.138172507f, 0.256913453f, -0.511464596f, -0.423161089f, -0.0884473398f, 0.0746445656f}
    };

    static float mha_qkv_weights[16][48] = {
        {0.0456334502f, -0.0336182676f, -0.266341925f, -0.304659784f, -0.234376207f, -0.50974977f, -0.228187144f, -0.500331581f, 0.580521882f, -0.0410223082f, 0.0242862087f, -0.193466425f, 0.247966245f, -0.370332807f, 0.370535254f, 0.422677189f, -0.254855782f, 0.613139749f, 0.235423207f, -0.352234066f, 0.352703661f, -0.535577059f, 0.177588716f, -0.194524929f, -0.382283956f, -0.121415935f, 0.21366106f, 0.0161542296f, 0.420283854f, -0.194343328f, -0.00880707428f, 0.174875915f, 0.0211035926f, -0.10452316f, -0.296629518f, 0.0932439491f, -0.442504287f, 0.00657416414f, 0.184749007f, 0.978681147f, 0.314193189f, -0.114550486f, 0.978034079f, 0.807430029f, -0.157394856f, -0.14403753f, 0.469878078f, -0.301908851f},
        {0.0360682867f, 0.0769221038f, 0.00478691934f, 0.0412914865f, 0.0754776895f, 0.331707269f, 0.0521124713f, -0.0995722711f, -0.291950345f, -0.18437098f, 0.300333053f, 0.400575221f, 0.0279825535f, 0.215787411f, -0.135399938f, -0.143703759f, -0.512929201f, -0.201165721f, -0.207395896f, 0.0615827255f, 0.0653592646f, -0.348530173f, 0.884929538f, -0.573966503f, -0.175116152f, 0.947299778f, -0.547231495f, 0.249020144f, 0.514151037f, -0.243716463f, 0.137681276f, 0.53341341f, 0.213346109f, -0.231172875f, 0.752270162f, -0.189926162f, -0.248901352f, 0.7940678f, 0.492214024f, -0.292283237f, 0.334896415f, 0.546017528f, -0.0828189254f, 0.057191994f, -0.103573807f, -0.553709865f, 0.0168071166f, -0.120273195f},
        {-0.125519827f, 0.130723104f, -0.0347099453f, 0.249092564f, 0.266685039f, 0.341829062f, 0.18292731f, -0.125926301f, -0.423952609f, 0.259946734f, -0.18899335f, -0.133577555f, -0.155915216f, 0.46154362f, -0.471693188f, -0.409214497f, -0.0289476346f, -0.0187129322f, 0.480064213f, -0.532183886f, -0.252173871f, -0.699651539f, 0.00781720132f, -0.101226851f, 0.418795139f, 0.271901011f, 0.214019477f, -0.402076244f, -0.523465097f, 0.452092588f, 0.501782477f, 0.400663555f, 0.77711004f, 0.928722441f, -0.11228288f, -0.583203375f, 0.0122819655f, 0.0887546241f, 0.461298108f, 0.117492326f, -0.241902679f, 0.09132009f, -0.416857421f, 0.177502304f, -0.126574561f, -0.160636365f, 0.033759851f, 0.305376023f},
        {-0.305299014f, 0.314525127f, -0.572102666f, 0.800128281f, -0.141234383f, -0.137386084f, 0.00875819474f, -0.533792853f, -0.0352842063f, 0.275799841f, -0.217571855f, -0.236913845f, 0.259187639f, 0.0725160018f, -0.298395365f, 0.0441368856f, 0.553151309f, 0.100368276f, 0.363246322f, -0.526845515f, 0.156569481f, 0.136254072f, 0.17264612f, -0.435450792f, 0.342672348f, 0.196902618f, 0.712971687f, -0.511115193f, 0.237892628f, 0.23697646f, 0.155389115f, 0.133365944f, 0.120198049f, -0.384028316f, -0.107907549f, 0.0857205167f, 0.505329013f, -0.529271841f, 0.0956785679f, -0.116160274f, 0.398292392f, 0.114409201f, -0.0338469408f, 0.0347076692f, 0.120627701f, 0.773592293f, -0.842778683f, -0.349081099f},
        {-0.119660132f, -0.00809459947f, 0.0797870383f, 0.179282978f, -0.153563321f, 0.0415284224f, 0.0164332036f, 0.240149409f, -0.319226503f, 0.0991839021f, 0.15884982f, 0.187714472f, -0.189142108f, 0.17320323f, -0.411060005f, -0.181281313f, 0.318353266f, -0.422956705f, -0.447756231f, -0.0958220512f, 0.0771913454f, 0.221846461f, -0.082390666f, 0.156169966f, 0.191723332f, -0.0917814299f, -0.035665717f, -0.271922201f, -0.156093225f, 0.236740768f, 0.218679592f, 0.0330546238f, 0.171933591f, 0.0129592363f, 0.197311878f, -0.0974704847f, 0.928002357f, 0.29980436f, -0.300227404f, -0.858264387f, 0.222255185f, 0.530452132f, -1.16719627f, -0.528327703f, 0.276900828f, 0.103446968f, -0.706770658f, -0.044156488f},
        {-0.310234666f, 0.181402549f, -0.519595504f, -0.0996525884f, 0.333651811f, 0.0599991977f, 0.480950236f, -0.261456341f, 0.0477617383f, 0.34408915f, -0.190681517f, -0.570221364f, 0.304997027f, -0.120502837f, -0.243473738f, -0.384800285f, -0.262051105f, 0.667647243f, 0.460983008f, -0.510237396f, 0.691395938f, -0.367394179f, 0.0244243219f, -0.149065703f, 0.356273621f, 0.217112824f, 0.490288377f, -0.665129244f, 0.0697150975f, 0.40547964f, 0.507745504f, 0.840058565f, 0.297723353f, 0.135848999f, 0.037986517f, -0.115630478f, 0.0162351802f, -0.265943915f, 0.289529622f, 0.614707172f, 0.0744451955f, 0.164776579f, 0.017854955f, 0.427228332f, -0.709024727f, -0.243551284f, 0.0413869135f, 0.119021796f},
        {0.312718391f, -0.257326335f, 0.298881173f, -0.711789787f, 0.159289703f, -0.0969405621f, 0.0795095116f, 0.137807727f, 0.362442285f, -0.066808328f, 0.278504163f, 0.0211462658f, -0.0437195301f, -0.317091972f, 0.392752141f, 0.0158934146f, -0.160159558f, 0.193287134f, -0.356624752f, 0.429391593f, -0.0830838159f, 0.148466066f, -0.0255197808f, 0.255031973f, -0.768560767f, -0.0928127468f, -0.224167258f, 0.307549596f, 0.263966322f, -0.427067697f, -0.517865658f, -0.00755119603f, -0.608829439f, 0.0209534336f, -0.0404226147f, 0.0509581752f, -0.392975926f, 0.130517736f, -0.284175575f, 0.245847881f, 0.166845188f, -0.021172313f, 0.472133309f, -0.421697348f, 0.09781643f, -0.0576822497f, 0.325707138f, -0.244857252f},
        {-0.134227738f, -0.0495935418f, -0.0494164564f, -0.292024553f, 0.184943289f, 0.044609081f, 0.168411121f, 0.0215351712f, -0.161097661f, -0.014668406f, 0.251967072f, 0.197430462f, 0.0166393481f, -0.0602081306f, -0.259769827f, -0.0997694358f, 0.024723269f, -0.18473658f, -0.433708042f, 0.439666361f, -0.0995955318f, -0.0881143063f, -0.918469667f, 0.298457891f, 0.209627837f, 0.0317779332f, -0.624837458f, 0.193221718f, -0.43686384f, 0.457455248f, -0.0305587705f, 0.264777064f, 0.337390184f, 0.727549255f, 0.345243335f, -0.265891224f, 0.140960693f, 0.684434474f, 0.0724814981f, -0.456801385f, -0.695122182f, 0.0473745242f, -0.175262749f, 0.844198287f, -0.366207123f, -0.139274076f, 0.000891195145f, 0.928650498f},
        {-0.112109631f, 0.0614178926f, -0.357039601f, 0.0190446898f, -0.131441876f, -0.349776745f, 0.0543775037f, -0.161872029f, 0.0978441238f, 0.346971154f, -0.427356601f, -0.477255344f, 0.0961264297f, -0.10881836f, 0.03399482f, 0.175777033f, 0.537680328f, -0.0506320298f, 0.34941408f, -0.351152956f, -0.116368271f, 0.151858941f, -0.0295734592f, 0.222370371f, 0.630748987f, 0.19091633f, 0.577228367f, -0.432202458f, -0.0708517432f, -0.0167641193f, -0.0793167874f, -0.468811482f, 0.114243031f, 0.310723215f, -0.178633213f, 0.0288057569f, 0.0153210312f, -0.841923833f, 0.613576412f, 0.325669408f, 0.0414456055f, -0.300295442f, 0.118312418f, -0.125923395f, -0.623317599f, 1.03803146f, -0.253628224f, 0.241199568f},
        {-0.0165357348f, 0.0268029124f, -0.347608209f, 0.66931963f, -0.304500461f, -0.0733823553f, -0.0421678573f, -0.240218326f, 0.107431896f, 0.140210479f, -0.0547263734f, 0.0775680766f, 0.13242133f, 0.258569449f, -0.0709505454f, -0.0478639938f, 0.351240247f, -0.20526956f, -0.0321055502f, -0.0241610371f, -0.555506051f, 0.163983807f, -0.0188138057f, 0.0666409582f, -0.437031835f, -0.136905909f, 0.308717132f, -0.630528986f, -0.223995641f, 0.200548679f, -0.37514025f, 0.128390312f, -0.230440006f, -0.131530985f, -1.03825581f, 0.35074681f, 0.0917868093f, 0.0981035978f, -0.413748771f, -0.242530495f, 0.0124847107f, 0.155500382f, -0.0918837488f, -0.256094605f, 1.10214865f, 0.0656711534f, -0.239266157f, -0.438106745f},
        {-0.40126431f, 0.0880118459f, -0.25451082f, 0.374254763f, 0.0157416444f, 0.00536244223f, 0.049829524f, -0.31496653f, -0.0172907282f, 0.159868255f, -0.1671267f, -0.226208061f, 0.0367528908f, -0.0738881677f, -0.243690625f, -0.254113287f, 0.169906095f, 0.258624256f, -0.491058201f, -0.483894378f, 0.263942093f, -0.112770058f, -0.328338772f, 0.746619284f, 0.516745567f, -0.331432611f, 0.50911051f, -0.567953706f, -0.174089506f, 0.676098108f, 0.217849806f, -0.0219083019f, 0.786116719f, 0.126658857f, -0.110724941f, -0.810884058f, 0.55695945f, 0.269465923f, -0.136971608f, -0.048148483f, -0.306975573f, -0.00568232778f, 0.00617978908f, 0.0886663273f, -0.016380161f, 0.0765219927f, -0.522663593f, 0.181867421f},
        {0.0363239795f, -0.236406684f, 0.080194734f, -0.312783569f, 0.177030668f, -0.0990116894f, -0.294119388f, 0.197830275f, 0.468059272f, -0.331882328f, 0.00815129466f, -0.0138884773f, -0.041304715f, -0.402844369f, 0.091995731f, 0.0889132097f, -0.590147316f, 0.0502779782f, -0.215563849f, 0.328174204f, -0.0803730711f, -0.167145953f, -0.182633415f, 0.392648369f, 0.126486227f, 0.0114630358f, -0.275068432f, 0.493046939f, 0.177489474f, -0.33883512f, -0.291285664f, -0.632596195f, 0.0598997585f, 0.316893995f, 0.0569426194f, 0.0235661156f, -0.44430393f, 0.402430385f, -0.0339949057f, 0.075522311f, -0.553922653f, -0.823369801f, 0.273731023f, 0.0779865012f, -0.354740977f, -0.0371920131f, 0.415327877f, 0.507434726f},
        {0.122293457f, -0.170159444f, 0.15852493f, 0.0401712805f, -0.016525466f, -0.0338190794f, -0.401054174f, 0.0976319015f, 0.13885425f, -0.210086927f, 0.00480705593f, -0.0177540425f, -0.0317562409f, -0.215265751f, 0.387225747f, -0.104532778f, 0.171244144f, -0.0363848135f, 0.0209354572f, 0.672319531f, -0.506422937f, 0.475781053f, 0.206201106f, 0.534833908f, -0.0456248969f, 0.258059382f, -0.107333802f, 0.312203377f, -0.319013238f, -0.540730059f, -0.692566216f, -0.386195153f, -0.941563368f, 0.450777858f, -0.0575440414f, -0.191117421f, -0.262229413f, -0.00280433195f, -0.181747884f, 0.190246895f, -0.38346228f, -0.54914242f, 0.427486062f, -0.600295901f, -0.0946483314f, 0.0500621423f, 0.230775923f, -0.12958619f},
        {0.0330724455f, -0.213102698f, 0.407321364f, -0.39422667f, 0.0360954255f, 0.103081092f, 0.0479178727f, 0.196658209f, -0.137442976f, -0.0706665814f, -0.00173783861f, 0.0758533627f, -0.56128931f, -0.26014325f, 0.136982515f, 0.0770178586f, -0.214999348f, 0.100977287f, -0.0985031798f, -0.0832797214f, 0.753817499f, -0.393725902f, 0.0122078788f, -0.335577101f, -0.0368010253f, -0.16196309f, -0.0765838474f, -0.216339499f, 9.51050024e-05f, -0.355817437f, 0.237971544f, -0.148183942f, 0.475893825f, -0.912795305f, 0.714624763f, 0.414457083f, 0.148369253f, 0.135325998f, -1.06567872f, 0.0834762901f, 0.444003671f, 0.293446004f, -0.186183959f, -0.970049083f, -0.0930777639f, 0.0981804356f, 0.207617134f, -0.699448526f},
        {0.162207395f, 0.140185967f, 0.638002813f, -0.0176055506f, 0.187188387f, 0.322799712f, -0.0482089184f, 0.279096037f, -0.262415141f, -0.243148237f, 0.136118814f, 0.252116442f, -0.00787297823f, 0.172349826f, -0.207533285f, -0.254349977f, -0.187420413f, -0.280113041f, -0.320295781f, 0.159800336f, 0.470238984f, 0.586560905f, 0.00179774582f, -0.339807034f, 0.0709270984f, 0.274908304f, -0.509184182f, 0.460688144f, 0.0760183111f, 0.0333569236f, 0.194276884f, 0.398154348f, -0.297234774f, -0.259760231f, 0.383399755f, 0.267053872f, 0.0192948431f, -0.0709547326f, -0.685972869f, -0.475786865f, -0.0882104114f, 0.469911128f, -0.204939038f, 0.00588806486f, 0.687877119f, -0.811963677f, 0.348543018f, -0.0588150546f},
        {0.155773804f, 0.216127679f, 0.208547622f, 0.0431854688f, -0.10721387f, 0.440172285f, -0.518127501f, -0.247909397f, -0.0976607576f, -0.192263484f, 0.0168668758f, -0.0836551115f, -0.0112101929f, 0.0845425129f, 0.259472698f, 0.257846981f, 0.0894538611f, -0.447609425f, 0.551391363f, -0.210452959f, -0.244273931f, 0.0960621461f, 0.253589243f, -0.61749655f, -0.148750246f, 0.0786054805f, 0.219648778f, 0.465047985f, 0.661287546f, -0.504557848f, -0.0984763727f, 0.179130659f, -0.0335923173f, -0.515346527f, -0.382936627f, 0.845303416f, -0.425741285f, -0.897444487f, 0.0145698991f, 0.0140997842f, 0.631824195f, -0.246842176f, -0.0788654387f, 0.136599392f, 0.257726252f, 0.131054103f, 0.162501276f, 0.135132611f}
    };

    static float mha_qkv_bias[48] = {
        0.487739623f,
        0.349241316f,
        0.131992027f,
        0.105710931f,
        -0.724742532f,
        0.00754584325f,
        -0.502743125f,
        0.697412252f,
        -0.350160271f,
        -0.352706254f,
        -1.08645964f,
        0.932032704f,
        -0.320100069f,
        0.58253628f,
        0.136741325f,
        0.828023434f,
        0.42700547f,
        -0.0285433363f,
        -0.0755792186f,
        0.129819602f,
        0.319572359f,
        -0.254960984f,
        0.251145482f,
        0.0565470755f,
        0.494144201f,
        0.342044264f,
        0.00539549626f,
        0.118460923f,
        0.0292883925f,
        -0.0483878851f,
        0.277216315f,
        -0.0135992747f,
        0.0221366473f,
        0.124774136f,
        0.0169664845f,
        -0.0641123876f,
        -0.0245482065f,
        0.0447976813f,
        0.0573113859f,
        0.0831116885f,
        -0.234478474f,
        -0.0517690182f,
        -0.0357895158f,
        -0.062345311f,
        0.140891999f,
        -0.177755848f,
        -0.113404699f,
        -0.0288532935f
    };

    static float mha_out_weights[16][16] = {
        {0.439147562f, -0.234483629f, 0.770678878f, -0.158177599f, -0.105569169f, 0.364057392f, 0.0112642935f, -0.243791804f, -0.453946441f, -0.608866215f, -0.0253262427f, 0.2670829f, -0.508910716f, 0.434137702f, -0.245956317f, 0.174334198f},
        {0.184077248f, 0.400217623f, 0.171641618f, 0.0616913922f, 0.188114628f, -0.397052705f, -0.268859267f, -0.162562311f, 0.19879356f, 0.609203339f, -0.00624886481f, 0.229144424f, -0.817120433f, 0.0621616989f, -0.907925248f, 0.120650716f},
        {0.11089696f, -0.284229606f, 0.0525969081f, -0.109578781f, 0.607919395f, -0.482771069f, 0.292812854f, -0.751208425f, -0.0316586383f, 0.110427752f, 0.385107875f, -0.163102731f, 0.203189611f, -0.252264261f, 0.0493389703f, -0.362195253f},
        {0.0592304282f, 0.408248514f, 0.352587551f, -0.0975356102f, -0.0248225555f, 0.321075469f, -0.468832701f, 0.00586852292f, -0.0669728294f, 0.0422650576f, 0.0510125905f, -0.0401112139f, 0.535358191f, -0.557185292f, -0.517579079f, -0.230293572f},
        {0.152765766f, 0.208831668f, -0.163358629f, -0.146108165f, -0.10136757f, -0.392729044f, -0.545501411f, 0.175787702f, 0.255737752f, 0.115842089f, -0.335204184f, -0.457163185f, 0.513995469f, 0.66004473f, -0.155686855f, -0.0900198445f},
        {-0.632575452f, -0.156163946f, 0.119509719f, 0.112512439f, -0.138280123f, 0.364980042f, -0.187182456f, 0.410924286f, -0.498888165f, 0.113448158f, 0.76624912f, -0.00254860288f, 0.149201453f, 0.00203698082f, -0.223913118f, 0.433325917f},
        {0.484580576f, -0.00680623855f, 0.123638071f, 0.469556183f, -0.5335747f, 0.0217371173f, -0.047039818f, 0.278264374f, -0.0354865007f, 0.0842598528f, -0.680959284f, -0.0447115488f, 0.00929060113f, -0.498122513f, -0.037999969f, 0.367946506f},
        {0.629902244f, -0.168614089f, -0.183583245f, -0.136567354f, 0.0154581899f, -0.570647836f, -0.427310437f, 0.183172062f, -0.115624011f, -0.0667316169f, 0.562396407f, 0.306438893f, -0.284568936f, -0.413199484f, 0.296382457f, 0.69285506f},
        {-0.111008182f, -0.522675514f, -0.397324711f, 0.196927354f, -0.163754776f, 0.288407475f, -0.403706998f, -0.503085911f, 0.127417728f, 0.206155688f, 0.125564635f, 0.650765896f, 0.0543159656f, 0.172431454f, 0.266263843f, -0.439070195f},
        {0.00855018478f, -0.674983144f, 0.128590837f, 0.509792626f, -0.240233243f, 0.293293625f, -0.33451876f, 0.0699145347f, 0.203636557f, -0.523277581f, -0.0375377834f, 0.0466654412f, 0.60696131f, 0.187623709f, 0.255583704f, 0.180429652f},
        {-0.0783512667f, -0.616765976f, 0.544964194f, -0.512634575f, -0.285791695f, 0.206041634f, 0.0638812482f, 0.19901742f, 0.647533834f, 0.196225911f, 0.0878775045f, -0.395595491f, -0.016873179f, -0.147424072f, 0.0355919488f, -0.109241106f},
        {-0.316733003f, 0.156503603f, 0.00100121053f, -0.0266445987f, 0.246894166f, 0.385938972f, -0.0237960443f, -0.640126109f, 0.464869857f, -0.419694811f, 0.0196106397f, -0.0537714362f, 0.162574664f, -0.211074725f, -0.696950614f, 0.796834648f},
        {-0.416388065f, 0.046555832f, 0.501445353f, 0.171789944f, -0.109298177f, -0.595326483f, -0.0387623161f, -0.171937495f, -0.346347481f, 0.161067426f, 0.41985473f, -0.106690124f, 0.102032728f, 0.0974459797f, 0.424698502f, 0.688907862f},
        {0.340293378f, -0.46566084f, -0.409109026f, -0.144896552f, 0.116250396f, 0.204026923f, -0.0442545116f, 0.0986876711f, -0.488174438f, 0.0234704707f, 0.207781658f, 0.376466572f, 0.504191875f, 0.208716735f, -0.786854208f, 0.13722001f},
        {0.226421803f, 0.105039462f, -0.318308204f, -0.14162074f, -0.604127109f, 0.0238605309f, 0.228561878f, -0.129358932f, -0.0231492966f, -0.124830402f, 0.252796531f, -0.508547544f, 0.0194703862f, 0.669376135f, 0.143632233f, 0.540092468f},
        {0.0569582731f, -0.216418117f, 0.0209630318f, 0.343346864f, 0.456161171f, 0.186036244f, -0.0145433778f, 0.503718793f, -0.203368664f, -0.347966433f, -0.246687382f, -0.516567588f, -0.335549831f, 0.214975491f, 0.244525865f, -0.310516447f}
    };

    static float mha_out_bias[16] = {
        -0.393392682f,
        -0.0912955105f,
        0.151395068f,
        -0.447125256f,
        0.0292391982f,
        0.0411888473f,
        0.0838825703f,
        -0.270142823f,
        -0.0162141975f,
        0.241599634f,
        -0.491260678f,
        0.483999461f,
        0.0932764262f,
        0.154493138f,
        0.297315657f,
        0.203169316f
    };

    static float ln1_gamma[16] = {
        0.977482378f,
        1.00186503f,
        0.792946339f,
        0.825463176f,
        0.970598638f,
        0.984023333f,
        0.636232138f,
        0.911153555f,
        0.847067177f,
        0.808212996f,
        0.837898672f,
        0.741217911f,
        0.690885842f,
        0.938162923f,
        0.72429353f,
        0.887857556f
    };

    static float ln1_beta[16] = {
        -0.0409854613f,
        -0.181134f,
        0.0607882068f,
        0.044156976f,
        -0.0624269769f,
        0.0559733361f,
        -0.174407542f,
        0.175475821f,
        0.158312038f,
        -0.0935645178f,
        0.273696691f,
        -0.0324802548f,
        -0.0629807636f,
        0.0387222208f,
        -0.104024068f,
        -0.253463119f
    };

    static float mlp_fc1_weights[16][128] = {
        {-0.483242601f, 0.0154407779f, -0.236736283f, 0.434620857f, -0.234207571f, -0.170119375f, 1.0054512f, 0.871056974f, 0.729382992f, -0.153928012f, -0.0761446804f, 0.796706021f, 0.0847281069f, 0.563555777f, 0.842999756f, 0.00283909054f, -0.162496313f, -0.153845906f, -0.254786164f, -0.0952807665f, -0.217995942f, -0.0857849643f, 1.17923903f, 0.466484547f, 0.472957045f, 0.414802164f, -0.146112427f, 0.13621597f, 1.04161716f, 0.254371524f, 0.449360102f, -0.296694338f, 0.00525642466f, -0.0569054745f, -0.305675298f, 0.7404989f, -0.0234455727f, 0.197691679f, 1.04281259f, 1.02271986f, 0.822701275f, 0.181850404f, 0.296947509f, 0.89150846f, 0.0248491261f, -0.248752266f, 0.450985223f, 0.42430225f, 0.035058815f, 0.62490207f, -0.145795599f, 0.231150001f, -0.379028171f, 0.431702971f, 0.229884058f, 0.559668958f, -0.0702730492f, 0.0378209949f, -0.000770487357f, 0.181639984f, -0.160452366f, 0.14809899f, 0.269423246f, -0.244541913f, 0.524578452f, -0.234838158f, 0.211089447f, 0.0922272503f, -0.0135668777f, 0.391607255f, 0.019809559f, 0.0381086916f, -0.0417578071f, 0.0912549645f, 0.0743151382f, 0.535518944f, -0.381271631f, 0.421703398f, 0.906702161f, 0.822335601f, 0.269907981f, 0.0977314636f, -0.146125734f, 0.882302582f, 0.453885645f, 0.37175554f, 0.162471429f, -0.216387719f, 0.0938996151f, 0.273265868f, 0.222447306f, 0.351275891f, -0.280842006f, 0.130068436f, -0.38162303f, -0.197163239f, 1.07576287f, -0.116712362f, 0.484864801f, 0.229369774f, 0.906403542f, 0.871338069f, 0.672137678f, -0.14526093f, 0.162526861f, 0.749382436f, 0.254780471f, 0.452550858f, 0.227964714f, 0.103727825f, 0.224648565f, 0.1701556f, 0.795322239f, 0.11142879f, -0.666648328f, 0.258583993f, 0.357299507f, 0.733599246f, -0.143803596f, -0.0215890743f, -0.011615769f, 0.503824234f, -0.155780673f, 0.31649226f, -0.203791097f, 0.70754081f, 0.801363111f, 0.00894815009f},
        {-0.383506447f, 0.0105147129f, -0.0200928673f, 0.116588257f, -0.212178856f, -0.301186979f, -0.246185243f, -0.102890335f, -0.375582576f, 0.169663206f, 0.571675539f, 0.0258140117f, -0.412157506f, -0.310228825f, 0.0753793493f, 0.543375969f, -0.495155275f, 0.282249123f, -0.305935651f, -0.132519394f, 0.425289273f, 0.188188702f, -0.73965317f, 0.0820076317f, -0.0852890164f, 0.19139874f, 0.0674293339f, 0.150049895f, -1.16254711f, -0.0408882797f, -0.171901569f, 0.140286177f, 0.580343902f, -0.478958875f, -0.70395118f, 1.12691021f, 0.127002418f, 0.551883161f, -0.232185438f, 0.0715746731f, -0.212451816f, 0.452373147f, 0.174433246f, 0.357293487f, -0.112341315f, -0.140171006f, -0.0117394095f, -0.304773182f, 0.318163216f, -0.036171183f, -0.426638514f, 0.652109802f, -0.056928575f, 0.229539573f, -0.229604915f, 0.314749002f, -0.611605048f, 0.131477565f, -0.901477695f, -0.607154071f, 0.22817941f, -0.450533628f, -0.0675224289f, -0.213548914f, 0.078682974f, 0.921949148f, -0.0562868156f, 0.363650709f, 0.561522722f, -0.126440883f, -0.0251915157f, 0.491235435f, 0.324327528f, 0.168543741f, -0.00171784509f, 0.220877841f, 0.664676547f, -0.88678509f, -0.249747068f, -0.767182946f, 0.155615017f, 0.141187236f, 0.55836916f, -0.357139826f, -0.290950269f, -0.0687295273f, -0.718710482f, -0.316176474f, -0.800277293f, 0.261666566f, -0.155605942f, -0.53526473f, -0.105890207f, -0.336124986f, -0.553248346f, 0.610028267f, 0.460849285f, -0.639135242f, -0.137598187f, 0.287430614f, 0.401371956f, -0.563305199f, 0.182799771f, 0.390500188f, -0.562946379f, -0.165603429f, -0.588224411f, 0.509883404f, -0.652065694f, 0.203370094f, -0.0591036603f, -0.0087254215f, -0.0138218086f, -0.259867817f, 0.0248408522f, 0.100823395f, -0.333822489f, -0.689431369f, 0.140139312f, -0.238559246f, 0.765653551f, 0.0744872764f, 0.56573683f, -0.0770668834f, 0.46900925f, -0.322741598f, 0.121604949f, -0.77022773f},
        {-1.05405211f, -0.133279458f, 0.129632488f, -0.0570373125f, -0.132693931f, 0.343122184f, -0.155589744f, -0.750648022f, -0.677765071f, 0.459819376f, 0.165861547f, -0.547290564f, -0.0417120196f, -0.621728301f, -0.243701026f, -0.295265973f, -0.577641726f, -0.38202548f, -0.339708328f, 0.463934362f, -0.712466598f, -0.201428518f, -0.0637737587f, -0.2046507f, -0.879051268f, 0.196001515f, -0.323309422f, 0.361561477f, 0.179115176f, -0.230173469f, 0.0453538224f, 0.146812215f, -0.214246333f, 0.279985189f, 0.0729567558f, -0.321843624f, -0.352082253f, 0.472866744f, 0.30548805f, -0.857800066f, -0.704222023f, -0.0510199368f, -0.354044497f, -0.0525908135f, 0.521460056f, -0.457398593f, 0.537641227f, -0.189298078f, -0.216160849f, -0.463856965f, -0.460064083f, -0.399223745f, 0.0935189426f, -0.112409689f, 0.150364965f, -0.16916509f, 0.197594821f, -0.713100433f, 0.333976895f, -0.39979142f, -0.109139889f, -0.206792355f, -0.265826344f, 0.522823572f, 0.0856428742f, -0.207255915f, 0.496626049f, 0.22435908f, 0.19478175f, 0.149853453f, -0.5896523f, -0.503885925f, 0.267523319f, -0.562979579f, -0.981792152f, -0.83594805f, -0.0874545723f, 0.232735738f, 0.0361722186f, 0.451725304f, -0.80511111f, -0.114581183f, -0.0711232275f, 0.0245611034f, 0.00909368414f, -0.392814755f, 0.393463761f, -0.136047259f, 0.110221386f, -0.572358787f, 0.2373164f, 0.303552985f, -0.901920676f, 0.191090137f, -0.175835162f, 0.114177197f, -0.717856467f, -0.779516041f, -0.354211807f, 0.100375868f, 0.326475531f, 0.216830522f, 0.209338635f, -0.0451006442f, -0.171057403f, -0.273975551f, 0.140417129f, -0.593453825f, -0.129621103f, 0.0695486814f, 0.467918277f, -0.341882139f, -1.36618924f, 0.130604342f, 0.181222245f, -0.525014699f, 0.420385957f, -0.0275843125f, -0.700103104f, -0.390500844f, -0.15918842f, -0.161118791f, 0.211031929f, 0.373670787f, -0.704553127f, 0.0181233939f, -1.17656577f, -0.059299279f},
        {0.433120489f, -0.0607927777f, -0.240191177f, 0.239369854f, 0.185359702f, 0.442332268f, -0.223625571f, 0.523609698f, 0.249598995f, 0.600468814f, 0.346791595f, 0.0141867008f, -0.247522905f, -0.214897618f, 0.199357644f, -0.0216877088f, -0.292949885f, 0.297534943f, -0.678198874f, -0.155204371f, 0.473724663f, 0.207287595f, 0.201119423f, 0.564198554f, -0.093406029f, -0.0838095769f, -0.286365271f, 0.727993786f, -0.13003704f, -0.0541946329f, 0.0826386139f, 0.285512924f, 0.0835988224f, -0.115714587f, 0.482951045f, -0.14419587f, -0.043492388f, -0.013883844f, 0.245851144f, 0.0284045581f, 1.26641953f, 0.899730802f, 0.200828403f, 0.0372901186f, 0.232302785f, 0.828810155f, 0.404787153f, 0.957730472f, -0.464139253f, -0.0632528439f, 0.0913668796f, 0.351112127f, 0.5367558f, 0.109825529f, -0.0356487706f, -0.0218296293f, 0.470046699f, 0.11323189f, 0.110237673f, 0.00936795492f, 0.362310678f, 0.174008116f, 0.632794142f, 0.646774769f, 0.175283372f, 0.232672602f, 0.395789206f, -0.0329261683f, -0.228535891f, 0.121096358f, 0.294163883f, 0.261239767f, 0.0865285173f, 0.470377654f, 0.384256482f, 0.318235606f, -0.225783542f, -0.23759684f, 0.302966058f, 0.118800044f, 0.157048315f, 0.288787037f, -0.0780019686f, -0.0384307466f, 0.0242701452f, 0.233924448f, 0.803997636f, 1.12402642f, -0.112616591f, 0.561389208f, 1.08105624f, 0.0586432852f, 0.921309888f, 0.148401529f, 0.0211167503f, 0.961504757f, 0.901679218f, 0.389005274f, -0.190318212f, 0.251329929f, 0.316739112f, 0.41588816f, -0.0818043724f, -0.419849753f, -0.0427782871f, 1.36082029f, 0.0696208328f, 0.292457044f, 0.301428765f, -0.335188985f, 0.995800614f, -0.253742844f, 0.188414693f, -0.0397778489f, 0.642337978f, 0.811726213f, 0.704624236f, 0.611633658f, -0.392913371f, 0.057732109f, 0.785143971f, 0.204961047f, 0.0131502505f, 0.482884109f, 0.557632506f, -0.364499658f, 0.0801538154f, 0.621969759f},
        {0.273304403f, -0.342753321f, -0.0833209604f, 0.178747788f, -0.0681508631f, 0.0414547399f, 0.46913144f, 0.243070379f, 0.760043085f, 0.263990134f, -0.4099572f, 0.659394443f, -0.0241827555f, -0.336925745f, -0.0904933214f, -0.821595967f, 0.0520010404f, 0.0934720784f, 0.223907113f, 0.0577671342f, 0.0360179618f, -0.148273215f, 0.259377599f, 0.353135794f, 0.051344905f, 0.718013585f, 0.310192227f, 0.459143281f, 0.206702679f, 0.372106165f, -0.785600662f, 0.287837386f, -0.191876963f, 0.0892243013f, -0.325668871f, -0.711550295f, 0.464255393f, -0.127794519f, -0.414658964f, 0.506412566f, -0.755303323f, 0.594252884f, -0.127668068f, 0.292658091f, -0.489471912f, 0.368673116f, 0.147855267f, 0.556220651f, -0.372005731f, 0.715460658f, -0.49947378f, 0.265699416f, -0.101581231f, -0.220574155f, -0.353799194f, -0.532793045f, -0.0446111225f, -0.118577696f, -0.0767121166f, -0.232215658f, 0.00144023891f, -0.20623754f, -0.252323002f, 0.346165597f, 0.30569756f, 0.111489847f, 0.507003546f, 0.016016461f, -0.2671974f, 0.239678964f, 0.831442654f, -0.38116467f, -0.0418119244f, 0.290089637f, 0.475183725f, 0.483689785f, 0.311057627f, 0.124024272f, -0.988333762f, -0.259667307f, -0.448645622f, 0.101857364f, -0.315448314f, 0.0421092696f, 0.146488234f, -0.290712059f, 0.670793116f, 0.265783995f, 0.18664977f, -0.348718435f, 0.592009425f, 0.436563015f, 0.264658481f, -0.491100997f, -0.0529266372f, 0.378958821f, 0.739345431f, -0.260783195f, -0.189564019f, 0.637293696f, -0.207820505f, -0.508078992f, -0.137064576f, -0.0152632175f, -0.0884535313f, 0.163174629f, -0.385481358f, -0.0853887349f, 0.41211313f, -0.560012281f, 0.442954004f, -0.933743775f, -0.00299845915f, -0.0134031065f, 0.471612513f, 0.32264477f, 0.19578445f, 0.841260016f, -0.247087359f, -0.382824719f, 0.536008775f, -0.347237527f, 0.478999525f, -0.0620775707f, -0.140003666f, -0.31320706f, -0.328789771f, 0.149542645f},
        {0.573500037f, 0.0896612555f, -0.0782937184f, -0.0135465171f, -0.147658929f, 0.503784418f, 0.403945059f, -0.8909145f, -0.264094681f, 0.219391912f, -0.138849631f, 0.6296978f, 0.233097926f, 0.636465132f, 0.393960863f, -0.610061884f, 0.311763108f, 0.136468649f, 0.23717773f, -0.156200379f, -0.0570003986f, -0.651211619f, -0.07400278f, -0.105813742f, 0.592404425f, 0.110341139f, 0.058117535f, 0.32400462f, 0.0528386906f, -0.418104708f, -0.243734702f, 0.0923968852f, -0.595036983f, 0.458946288f, 0.440795064f, -0.515048742f, 0.00511733443f, 0.268301815f, -0.443287015f, 0.0240493193f, -0.206385195f, -0.398811311f, -0.542358756f, -0.475529373f, 0.109179519f, 0.311423719f, -0.198112428f, -0.35785237f, -0.429969549f, -0.360786676f, 0.210550711f, -0.153884411f, -0.00645611854f, -0.273692816f, 0.273271948f, 0.310231149f, 0.308916211f, -0.437295169f, 0.396179229f, -0.297557741f, -0.174213126f, 0.398372203f, 0.00754258176f, 0.398123533f, -0.214523181f, 0.280326933f, 0.0260513257f, -0.699304163f, -0.470511883f, -0.0195689015f, -0.0761812255f, 0.172026679f, -0.197316766f, -0.178532735f, 0.0611437745f, -0.159547389f, -0.373621255f, 0.524535954f, 0.35758388f, 0.519337118f, 0.399610072f, -0.406025171f, -0.155863106f, -0.0117369024f, 0.708816648f, -0.289326489f, 0.372072458f, -0.316324562f, 0.286533058f, -0.464458883f, 0.219758302f, -0.126804873f, -0.139702663f, -0.643488824f, 0.665386856f, -0.649761915f, -0.612147748f, -0.0147885717f, 0.370359957f, -0.664230406f, -0.435596496f, 0.0698804855f, 0.257277548f, 0.0891965404f, 0.30904153f, -0.541071415f, -0.595221519f, -0.454518229f, -0.0224188715f, 0.584760964f, -0.346184671f, 0.243760049f, -0.182156324f, 0.266338617f, 0.58264637f, 0.249166653f, 0.23804155f, -0.808379948f, -0.335238099f, -0.157752246f, -0.386068195f, -0.470466942f, 0.32300064f, -0.701355577f, 0.0948247239f, -0.9154284f, -0.322028071f, 0.577281654f},
        {0.216425091f, -0.333987683f, -0.103519954f, 0.17509675f, -0.0629532114f, -0.391416162f, -0.523267984f, -0.388103157f, 0.175431818f, -0.13848114f, -0.566971302f, 0.31810987f, -0.142013043f, 0.413390934f, 0.552587628f, 0.0964266062f, 0.0295321029f, 0.665066838f, 0.314426064f, 0.000541287649f, 0.358992517f, -0.808888257f, 0.0216782428f, -0.0797465891f, 0.111506149f, -0.840950012f, -0.0651837215f, -0.860593379f, 0.560995162f, -0.0118115246f, -0.595942438f, 0.355783939f, 0.280910492f, 0.67035979f, -0.586390972f, 0.259322345f, -0.145071507f, 0.276040703f, -0.345773041f, -0.0856819823f, 0.748007953f, -0.706328332f, 0.0496979989f, 0.116622478f, 0.234393075f, -0.409833938f, -0.538378358f, -0.489898086f, 0.0654380769f, 0.370271295f, 0.347764254f, -0.0505576693f, -0.171109587f, 0.200691298f, -0.163891211f, 0.333464563f, -0.464539796f, 0.148767874f, 0.730975747f, 0.34575513f, -0.107034989f, -0.648520827f, -0.651092947f, -0.00482919905f, -0.238570854f, -0.0715808794f, -0.730165064f, -0.144130498f, 0.585320294f, -0.469050795f, -0.144917071f, 0.566895306f, 0.33648479f, -0.295094371f, 0.632790327f, 0.0865807459f, 0.160757214f, -0.0533471778f, 0.325316161f, 0.420705676f, -0.311760753f, -0.144098818f, -0.111058392f, -0.662957132f, 0.143602714f, -0.950256228f, 0.23180905f, 0.34776777f, -0.706301689f, -0.598129988f, -0.340240777f, 0.408670574f, -0.177707568f, 0.291573346f, 0.39017874f, -0.927362442f, 0.18275854f, 0.0560448617f, 0.40169543f, 0.0398011245f, 0.310364068f, 0.716586888f, 0.257356107f, -0.158656523f, -0.248593077f, -0.714148939f, -0.663796723f, -0.558249593f, 0.0433993563f, 0.00725176185f, -0.555720806f, -0.335082471f, 0.475894362f, 0.376398385f, 0.273831725f, -0.218727633f, -1.22173822f, 0.0756219327f, -0.173870102f, -0.578384161f, -0.0957122743f, 0.561006665f, -0.244744048f, -0.773187578f, 0.327396274f, -0.304021925f, -0.0680782571f, -0.501143873f},
        {0.257259071f, 1.21772134f, 0.606887519f, 0.21987398f, -0.0770235881f, 0.536766827f, 0.0124756405f, 0.35255757f, -0.216855496f, 0.519232392f, -0.176234439f, 0.675109029f, -0.139612198f, 0.437696904f, 1.25029433f, -0.175209805f, 0.941097677f, -0.18172203f, 0.228098392f, 0.182871073f, 0.176870093f, 0.267754585f, -0.142414615f, 0.612712681f, 0.545940578f, 0.0307023488f, 0.630476475f, -0.295564264f, 0.336863935f, 0.981688976f, 0.147673547f, 0.793018043f, -0.0189050995f, 0.0505657755f, 0.750201344f, -0.0357604362f, -0.313162774f, -0.250047863f, 0.323850513f, 0.0931699648f, 0.0980992988f, 0.220251292f, 0.49753049f, 0.718431592f, 0.340009123f, 0.53014195f, -0.161839798f, 0.190485075f, 0.232275531f, -0.164909109f, 1.08602345f, 0.138762131f, -0.290833145f, 0.51607424f, 1.33708155f, 0.652981758f, 0.798127353f, 0.0254990049f, -0.115086824f, 0.493754596f, -0.0722273141f, 0.883511901f, 0.40925312f, 0.339132518f, -0.0907055661f, 0.0159012359f, -0.24543345f, 0.384230644f, 0.667611897f, 0.891287684f, -0.426921517f, 0.375264287f, 0.369115055f, 0.509412169f, 0.0709436089f, -0.264237136f, 0.816027343f, 0.229298815f, -0.00178053102f, -0.0555943288f, 0.74925977f, -0.448710352f, 0.835192859f, -0.173495367f, 0.0586645417f, 0.366433889f, 0.0527358651f, 0.0541611612f, 0.814201653f, 0.42005074f, -0.231473565f, 0.110925205f, 0.462636024f, -0.175046042f, 0.00434563914f, -0.0977943838f, -0.155112416f, 0.169446692f, 1.42922866f, -0.155027643f, 0.191304788f, 0.859395444f, 0.102825418f, 0.738083482f, 0.0314632431f, -0.225862965f, 0.0793037936f, 0.42574659f, 0.120811313f, 0.526211262f, 0.520566404f, 0.243746057f, 0.257852793f, -0.101079017f, 0.272187501f, 0.64799422f, -0.0870428011f, 0.147865906f, 0.268912643f, 0.164441526f, -0.317372173f, 0.671859622f, 0.0753016695f, 0.210845098f, -0.0669443235f, 1.11318231f, 0.846144438f, 0.366336077f},
        {0.0800213516f, 0.130654514f, 0.288962752f, -0.591899753f, 0.172951445f, -0.0607775189f, 0.460110605f, -0.0642920285f, -0.237783238f, -0.0543179736f, -0.36963439f, -0.460008264f, 0.252444714f, 0.276486754f, -0.433728009f, -0.277170897f, 0.184444368f, -0.175479025f, 0.330839545f, -0.053474471f, -0.867403507f, 0.827796638f, 0.474801153f, -0.789896965f, -0.0342195183f, 0.450974584f, 0.49240315f, 0.230114818f, 0.0257122815f, -0.777850688f, 0.201315343f, -0.388956726f, -0.308446169f, 0.312283009f, -0.195278093f, -0.0263580829f, 0.572411299f, -0.29764396f, 0.386011004f, 0.61438185f, 0.402452797f, -0.163238004f, 0.140613317f, 0.0444495268f, -0.0034958201f, -0.339338362f, 0.0313731954f, -0.216618091f, -0.274045825f, -0.116677865f, -0.210613415f, 0.0181030296f, 0.320665091f, -0.407589048f, 0.147649497f, -0.33185479f, 0.546485066f, -0.218261912f, -0.078783378f, -0.276172251f, -1.0897336f, 0.0540010035f, 0.241137162f, -0.221021101f, 0.784656465f, 0.105701931f, 0.335274458f, 0.0335151069f, -0.220691487f, -0.366697907f, 0.221098006f, 0.0861710384f, -1.17714214f, 0.626307368f, -0.333878785f, -0.401367992f, 0.0920375139f, 0.0689824671f, 0.676232815f, 0.557683825f, 0.492236227f, 0.338150412f, 0.672243714f, -0.121292122f, -0.486694217f, 0.242699072f, 0.531428874f, -1.09557414f, 0.590420008f, 0.259862959f, 0.164244056f, -0.414381713f, -0.372160316f, -0.324173152f, -0.0726076588f, 0.0587417297f, 0.0159747917f, 0.592872322f, 0.0560857169f, -0.189937443f, -0.336650491f, 0.444476306f, -0.643255293f, 0.454832375f, -0.233179361f, -0.0617296882f, 0.822798431f, 0.32124567f, 0.826475024f, -0.312634736f, 0.0935651734f, 0.472842515f, -0.197784811f, -0.165523529f, -0.157092944f, -0.757636011f, -0.0158872157f, -0.237393692f, -0.0613926873f, 0.330591559f, -0.147344396f, -0.506362736f, -0.10823229f, -0.4444381f, -0.0297279954f, 0.0668238252f, 0.462789029f, -0.210127711f},
        {-0.155878484f, 0.264097482f, -0.240780771f, -0.499130785f, 0.310182601f, -0.299728632f, -0.263450265f, 0.597771406f, -0.248499781f, -0.676350951f, -0.106131963f, -0.0369119644f, 0.395820469f, 0.380730242f, 0.303509891f, 0.249303371f, -0.0630405173f, -0.0093072271f, -0.782116234f, -0.175952062f, -0.442037404f, -0.131992832f, 0.183787107f, 0.171788141f, -0.408318281f, -0.426911741f, 0.131742269f, -0.0638663396f, -0.825138271f, 0.112978525f, 0.208270088f, -0.717380285f, 0.445185095f, -0.0241812468f, -0.0677904114f, 0.207370982f, 0.496212393f, -0.323240936f, -0.608439088f, 0.23780641f, 0.269026756f, -0.00780332694f, 0.075976558f, 0.182523519f, -0.0124852583f, -0.153161392f, -0.449661463f, -0.452433258f, -0.14254576f, -0.207304537f, 0.00657316111f, -0.352627456f, 0.108893789f, -0.200028062f, -0.0309871342f, -0.0304096416f, -0.679959297f, 0.580929875f, -0.871803999f, 0.0331920795f, -0.547630668f, -0.810300708f, -1.04947877f, -0.699858427f, -0.269810557f, 0.22247079f, -0.125984535f, 0.50258702f, -0.162461177f, -0.635859847f, 0.160078704f, -0.359870672f, -0.398145586f, 0.338535428f, -0.00271536759f, -0.399503946f, 0.101963572f, -0.256398976f, -0.211027995f, -0.181212038f, 0.23719041f, 0.308948696f, 0.0373619534f, -0.0679485574f, -1.229563f, 0.266844451f, 0.0760111734f, -0.289592683f, -0.447859347f, -0.775736392f, -0.523296356f, -0.0164889526f, -0.268023551f, -0.0169530679f, -0.366778374f, 0.0101610608f, -0.236693934f, -0.458195895f, -0.124944828f, -0.694904149f, -0.959062994f, -0.556585193f, 0.436637968f, -0.444362402f, 0.0987431929f, 0.0271175392f, -0.285399467f, 0.0414550751f, 0.209031492f, 0.103728704f, -0.609857798f, 0.319745392f, 0.142603979f, 0.156295955f, -0.430476844f, -0.742984593f, -0.145302922f, -0.284294933f, -0.284850717f, -0.0403147899f, -0.270602137f, -0.197549716f, -0.143770874f, -0.156528279f, -0.618491948f, -0.467980832f, 0.132343084f, -0.376401395f},
        {0.107913755f, -0.0940412357f, -0.317933649f, -0.354114473f, 0.771361768f, 0.528721631f, 0.231380939f, 0.326160491f, 0.578916013f, -0.165741146f, 0.580258071f, -0.163165674f, 0.867430568f, 0.376970321f, 0.00494044926f, 0.331229061f, 0.811171651f, -0.34249106f, 0.395793557f, 0.987011611f, 0.0432749949f, 0.111770883f, 1.09371281f, 0.225200385f, 0.00557046942f, 0.0177513994f, 0.370349258f, 1.06731689f, 0.542521298f, -0.406577557f, 0.41400528f, 0.388182729f, 0.362128407f, -0.140077665f, 0.778758526f, 0.0495303907f, 0.657221615f, 0.225723073f, 0.203033864f, -0.0645550042f, -0.13086395f, 0.157075703f, 0.00987220928f, -0.0852458999f, 0.00611203723f, -0.14147608f, 0.687946379f, -0.325986624f, 0.406450331f, 0.58919096f, 0.093362771f, -0.0683328956f, 0.159061119f, 0.84646821f, 0.498012066f, -0.235049114f, -0.0962441564f, 0.603132427f, 0.519595146f, 0.980734587f, 0.691866398f, 0.762766063f, 0.315185905f, -0.0892389864f, 0.121775076f, 0.324924201f, -0.00832446571f, 0.97597456f, -0.180728182f, 0.315836638f, 0.624116421f, -0.19695577f, 0.769020498f, -0.354929179f, 0.761578858f, 0.60741365f, 0.287660241f, 0.564504802f, 0.419091761f, 0.109457523f, 0.712887526f, 0.0911746398f, -0.104271278f, 0.972349107f, -0.348243088f, 0.113407359f, 0.260053098f, 0.0867418796f, 0.175483212f, 0.0421027578f, 0.239231214f, 0.11004062f, 0.0372791439f, 0.437621683f, 0.479301006f, 0.605618536f, 0.0792835131f, 0.134565055f, 0.586391032f, 0.14964059f, 0.131967142f, 0.0740893036f, 0.110613599f, 0.0806305334f, 1.21498978f, 0.469411314f, 0.154876351f, 0.404500335f, 1.04603148f, 0.10969159f, -0.515771031f, 0.255703926f, 0.5003016f, 0.985379994f, 0.196103886f, 0.026585592f, 0.619470477f, 0.167188272f, 0.246062949f, 0.260191232f, 0.271313727f, 0.653280795f, -0.23427923f, 0.295469433f, 0.213199005f, 0.602400422f, 0.0258518886f, 0.041983854f},
        {-0.231185868f, 0.0460871682f, 0.0722456425f, 0.282709599f, -0.795466006f, 0.00827938877f, -0.144265816f, -0.560448706f, -0.164337024f, -1.13146567f, -0.193220809f, -0.070565708f, -0.0300332699f, 0.0651047528f, -0.221725762f, 0.185337663f, 0.581929147f, 0.410626292f, 0.194321886f, -0.102029212f, -0.241813734f, 0.0108761396f, -0.452558517f, -0.947337985f, 0.254195064f, 0.0302284416f, -0.92763555f, -0.331691712f, 0.146275282f, 0.0418237895f, -0.0263170674f, 0.252146602f, 0.312976658f, -0.348835081f, -0.563444316f, 0.0338643417f, -0.179749534f, -0.79740262f, -0.801288247f, -0.261505634f, -0.105837502f, -0.8562451f, -0.0993451849f, -0.0998764187f, -0.717448294f, 0.00443604263f, -0.0533942655f, 0.0345642269f, -0.123979978f, -0.415093541f, -0.764521956f, -1.10833061f, -0.463528812f, -0.798041105f, -0.537939668f, -0.74092716f, 0.168336242f, 0.201941475f, -0.154032752f, -0.919844925f, -0.01066487f, -0.0221771505f, -0.0580881983f, 0.24867633f, -0.0856209695f, -0.240353793f, -0.613588333f, -0.694815755f, 0.339879036f, 0.292794466f, -0.0498319454f, -0.451699793f, 0.418768793f, -0.0252426341f, -0.53168571f, -0.113560006f, -0.770161688f, -0.0447390974f, -0.610119998f, -0.594175994f, -0.352196962f, -0.130426615f, -0.452521026f, -0.273719758f, 0.411535323f, -0.36415112f, -0.14241831f, 0.358358532f, -0.822165549f, 0.249751091f, 0.102981657f, 0.191281661f, 0.155429661f, -0.112156644f, 0.778361022f, -0.919154942f, -0.443818092f, -0.91552484f, -0.487439305f, 0.00433244882f, -0.183798566f, -0.402808666f, 0.356906056f, -0.244685724f, 0.15848881f, -0.371980608f, 0.11571122f, -0.835641801f, -0.691405118f, 0.148859441f, -0.422096282f, 0.215760961f, 0.0620728284f, -0.445495039f, 0.129926592f, 0.389055997f, 0.0215747356f, -0.247605801f, -0.171957642f, 0.191503361f, -0.972524881f, -0.257704616f, 0.200957641f, -0.473096043f, -0.913846254f, -0.22760947f, 0.117031977f, -0.460577995f},
        {0.204440355f, 0.134269029f, 0.122093499f, -0.427641958f, 0.181002975f, -0.0982669741f, -0.0942088664f, 0.378915966f, 0.0766110495f, -0.951192677f, 0.775652409f, 0.355212837f, 0.229796767f, -0.496679962f, -0.52180171f, 0.352761596f, 0.234549314f, -0.271062285f, 0.14675425f, -0.198413104f, 0.413517863f, -0.232764706f, -0.481072038f, -0.158893436f, -0.404631615f, -0.831105649f, -0.689420819f, 0.0987612903f, -0.257053912f, 0.0193594955f, 0.124155156f, -0.574813664f, 0.0370339788f, -0.106449857f, -0.597528934f, 0.0273010824f, 0.405002654f, -0.287647516f, -0.382676095f, -0.314148188f, -0.0768043846f, -1.06434441f, -0.14108935f, -0.37899673f, -0.497615397f, 0.169494957f, -0.70492214f, -0.0285716336f, -0.328515798f, -0.050995674f, 0.255551696f, -0.243960634f, 0.605811298f, -0.363665104f, -0.608767509f, -0.0807592645f, 0.173604533f, -0.572405994f, -0.00633954117f, 0.151736066f, -0.28739208f, 0.179108173f, 0.463759333f, 0.570044518f, 0.645888984f, 0.141293496f, 0.0703603253f, -0.521199644f, 0.369680673f, -0.0685191303f, 0.271998942f, 0.492535442f, -0.511125028f, 0.270421952f, -0.0876212642f, 0.0613250844f, 0.129149124f, 0.483980447f, -0.112857215f, -0.295248836f, -0.161934212f, 0.0262012295f, -0.155950263f, 0.00336295529f, 0.260704607f, -0.97652632f, -0.0180185046f, 0.284709215f, 0.272646964f, 0.840932548f, 0.33477056f, -0.22273995f, 0.34551692f, -0.464249611f, -0.169088617f, -0.45192486f, -0.317267656f, 0.736427128f, 0.289136678f, 0.539584875f, -0.567755699f, -0.32894671f, -0.1752446f, -0.000344500178f, 0.102256015f, -0.574228048f, -0.0196819529f, -0.668197572f, -0.830491841f, -0.129933134f, -0.749822676f, -0.539034605f, 0.669111848f, -0.373956323f, -0.0216590278f, -0.181224689f, -0.834093392f, 0.225331903f, 0.190393925f, 0.0111227138f, -0.0434132852f, -0.0626897663f, -0.610580444f, 0.14828293f, 0.501964927f, 0.0582543164f, -0.0847586766f, -0.527477086f},
        {-0.154187456f, -0.47301802f, -0.176723391f, 0.383657634f, 0.352023035f, -0.622489393f, 0.27485171f, -0.621558845f, -0.150807917f, 0.29975763f, -0.369802147f, 0.0861770511f, 0.27115798f, -0.35073027f, -0.492744863f, -0.169791833f, -0.271666229f, 0.0274786893f, -0.121363789f, -0.545541763f, 0.23427844f, -0.164241388f, -0.810181737f, 0.315907449f, -0.124143191f, 0.096282281f, 0.34604758f, -0.439930081f, -0.585673153f, 0.0631995052f, -0.346516073f, -0.68851167f, -0.743504763f, -0.31503281f, -0.0924112946f, -0.0842558146f, 0.0865064561f, -0.0440038517f, -0.336904943f, 0.237745002f, -0.584811866f, 0.379108191f, -0.54763329f, -0.225695312f, -0.117327832f, 0.214750469f, -0.652265072f, 0.314930648f, 0.639471114f, 0.177262992f, 0.332389295f, 0.331618071f, -0.357878864f, -0.166912839f, -0.51229012f, 0.315726161f, -0.156052902f, -0.816525578f, -0.503294826f, 0.811440051f, -0.147522643f, -0.368873239f, -0.651648939f, -0.304378659f, -0.615266502f, 0.204739392f, -0.576115787f, -0.141492024f, -0.651506782f, -0.737351894f, -0.150566503f, -0.124731533f, 0.325528622f, -0.798043132f, 0.437254131f, 0.175372317f, -0.232552975f, 0.136442587f, -0.644499958f, -0.597137094f, -0.281136155f, 0.426117867f, -0.683244884f, 0.572506011f, 0.0650002807f, 0.257590234f, -0.235377133f, -0.029592162f, -0.12937282f, -0.371910453f, -1.12281191f, -0.640218318f, 0.0699447691f, -0.303509682f, -0.571152866f, 0.164127752f, 0.0484993905f, 0.0598077513f, -0.156820923f, 0.0923475847f, -0.132439971f, -0.554273605f, -0.619745255f, -0.749359965f, -0.277997077f, 0.0484702326f, -0.136620581f, 0.308405668f, -0.177366987f, -0.24819082f, -0.246540517f, -0.342581987f, 0.0748824477f, 0.253049493f, -1.08911884f, 0.135874867f, -0.0181766283f, -0.468138695f, 0.092433013f, 0.387025863f, -0.0584182926f, -0.558977544f, -0.229681537f, -0.459896475f, 0.341025829f, -0.312573165f, -0.789609015f, 0.13486515f},
        {0.123626694f, 0.319438994f, 0.462460786f, -0.219730183f, -0.339420468f, -0.155084044f, -0.432664782f, -0.0561541654f, -0.697001278f, -0.466794401f, -0.256098151f, -0.929068387f, -0.289741784f, -0.145857871f, -0.308981717f, 0.0351780504f, -0.138618931f, -0.211417094f, 0.211028174f, -0.778060019f, -0.0175730344f, 0.388467938f, -0.0958988741f, 0.285055041f, -0.599407017f, -0.488778383f, -0.0359859504f, -0.697622359f, -0.174380288f, 0.212799907f, -0.0530082323f, -0.989481509f, 0.0899699256f, -0.575102687f, -0.283825308f, -0.285195351f, -0.505938888f, -0.114629813f, -0.301942945f, -0.683946311f, 0.069918856f, -0.086554043f, 0.594395757f, 0.551153004f, -0.105824977f, 0.103358373f, -0.475473493f, -0.124208555f, 0.204609707f, -0.696519613f, 0.184173957f, -0.0467162654f, 0.18374607f, -0.51731199f, -0.722559631f, -0.0993470997f, -0.770352781f, 0.144254565f, 0.00301964278f, -0.421438158f, 0.448875874f, 0.13488391f, 0.061760962f, 0.2460545f, -0.253048241f, -0.901673138f, -0.905202627f, 0.27060011f, 0.0343193896f, -0.461219192f, -0.132082745f, 0.295250922f, -0.0249017235f, -0.0876254961f, -0.11823108f, -0.477473766f, -0.14298667f, -0.900718391f, 0.291883677f, -0.42789489f, -1.19697475f, -0.152254552f, -0.380160958f, -0.236086458f, -0.318471879f, 0.201601729f, -0.673782408f, 0.386177927f, -0.610994935f, -0.0656225607f, -0.00479769707f, -0.0522994176f, 0.565643787f, 0.529015958f, -0.238803178f, -0.126598224f, 0.0583079942f, 0.0479577854f, -0.0537365861f, -0.0143612074f, 0.294891655f, -0.800781488f, -0.202006534f, -0.338864714f, -0.399961978f, -0.131478086f, 0.570480406f, -0.380467534f, 0.131104723f, -0.601638436f, 0.239840031f, -0.312304258f, -0.793615818f, -0.451639324f, -0.0133039169f, -0.0194631927f, -0.0589620396f, -0.505212307f, 0.200768739f, 0.342336893f, 0.376325309f, -0.576571643f, -0.275320232f, 0.588115215f, 0.100194991f, 0.150783926f, 0.179465592f, -0.320223123f},
        {0.16697976f, -0.946182847f, -0.644646227f, -0.902411878f, 0.178632647f, 0.106365755f, -0.386229813f, -0.213125437f, 0.204716876f, 0.293582588f, 0.496565789f, -0.209538087f, -0.49179244f, -0.0616110004f, -0.614342153f, 0.309811115f, -0.418469161f, -0.672338307f, -0.0862678438f, 0.307880759f, 0.0958989561f, -0.109795526f, -0.221386373f, -0.714522958f, 0.139196411f, 0.0113290083f, -0.575757146f, -0.553029716f, -0.355833948f, -0.831684351f, 0.12750569f, 0.151188165f, 0.161358669f, -0.579389036f, 0.00557759963f, -0.519026697f, -0.410223544f, 0.172699034f, 0.461814702f, -0.852202892f, -0.269652039f, -0.37747246f, -0.620482147f, -0.629024804f, 0.196692348f, -0.749334812f, 0.420627326f, 0.24783431f, -0.0287191123f, 0.372316808f, -0.486946762f, 0.0988057703f, -0.219575793f, 0.5279302f, -0.133006752f, 0.0791222826f, -0.32454899f, 0.0645741895f, -0.0494047329f, 0.279851109f, 0.483036399f, -0.435062677f, 0.440023988f, -0.51425004f, -0.0339795463f, 0.0033712287f, -0.116440006f, -0.60116303f, -0.209725738f, 0.431539893f, -0.854460537f, -0.315326273f, -0.476145923f, -0.229189977f, 0.081378758f, 0.475888193f, 0.0782657266f, -0.313890517f, 0.201353326f, -0.359848261f, 0.0208185241f, -0.196664095f, -0.0758666396f, -0.587739229f, -0.0974645689f, 0.355830312f, -0.802020788f, 0.303163588f, 0.249819607f, 0.0513115972f, 0.246648878f, -0.644536197f, -0.218373373f, 0.476234168f, -0.0663279891f, 0.100947909f, -0.17314063f, 0.103513025f, -0.662699044f, -0.563571751f, -0.123219155f, -0.245586753f, -0.631248832f, 0.3690373f, -0.0840013325f, 0.358363092f, -0.580509305f, 0.247480705f, -0.268966407f, 0.217084989f, 0.0916223675f, 0.226471707f, -0.565421939f, 0.118576325f, -0.0207879394f, 0.0459378771f, -0.519348443f, 0.106894962f, 0.297037274f, -0.884969711f, -0.506855488f, 0.773668468f, -1.03486085f, 0.175549701f, -0.170741916f, 0.330744594f, 0.0565570779f, -0.359679222f}
    };
	
    static float mlp_fc1_bias[128] = {
        -0.334190667f,
        -0.0758232996f,
        -0.323352188f,
        -0.546227098f,
        -0.0800027549f,
        -0.275230259f,
        -0.241869748f,
        0.0836587399f,
        -0.430480868f,
        -0.433303684f,
        -0.328310877f,
        -0.191709489f,
        -0.392887622f,
        -0.396567881f,
        -0.238169223f,
        -0.406963527f,
        -0.536124587f,
        -0.272332847f,
        -0.368729889f,
        -0.356515169f,
        -0.125277281f,
        -0.348672062f,
        0.174086183f,
        -0.258895606f,
        -0.238763601f,
        -0.245123118f,
        -0.355643243f,
        -0.357667685f,
        -0.596109807f,
        -0.0262652393f,
        -0.581508338f,
        -0.429497987f,
        -0.430276662f,
        -0.66721189f,
        0.0523083508f,
        -0.260030478f,
        -0.187803298f,
        -0.221360862f,
        -0.2291971f,
        -0.479106367f,
        -0.329558134f,
        -0.587918282f,
        -0.223007113f,
        -0.0858794749f,
        -0.262409508f,
        -0.185860768f,
        -0.380625457f,
        -0.345613271f,
        -0.342644185f,
        -0.239808336f,
        -0.281621426f,
        -0.0979974642f,
        -0.0921520218f,
        -0.47905606f,
        -0.343876839f,
        -0.0371352509f,
        -0.328023553f,
        -0.409715801f,
        -0.437799335f,
        -0.423348516f,
        -0.39008227f,
        -0.18823947f,
        -0.0981437862f,
        -0.410863638f,
        -0.571614087f,
        -0.282641262f,
        -0.336174488f,
        -0.31132403f,
        -0.298836738f,
        -0.0738110915f,
        -0.156591311f,
        -0.0593895949f,
        -0.492292285f,
        -0.0970628485f,
        -0.402282536f,
        -0.247757524f,
        -0.63673389f,
        -0.314933389f,
        -0.357896477f,
        -0.61343962f,
        -0.471363366f,
        -0.0866240785f,
        -0.343603849f,
        -0.355161995f,
        -0.553141594f,
        -0.403009832f,
        -0.513170898f,
        -0.266586602f,
        -0.4008663f,
        -0.363530934f,
        -0.207867861f,
        -0.1926817f,
        -0.206375346f,
        -0.502633989f,
        -0.51281333f,
        -0.198596567f,
        -0.395649016f,
        -0.429555893f,
        -0.336115986f,
        -0.224078268f,
        -0.48829332f,
        -0.336151659f,
        -0.40512675f,
        -0.257943004f,
        -0.510183096f,
        -0.0723038912f,
        -0.602920949f,
        -0.331152856f,
        -0.305004239f,
        -0.167441323f,
        -0.495233148f,
        -0.348780364f,
        -0.0182061866f,
        -0.332600027f,
        -0.0504300855f,
        -0.133201689f,
        -0.150172651f,
        -0.401113331f,
        -0.386054844f,
        -0.462143779f,
        -0.25853321f,
        -0.464615673f,
        -0.246428072f,
        -0.317208588f,
        -0.250401855f,
        -0.294211864f,
        -0.245052397f,
        -0.228766501f
    };

    static float mlp_fc2_weights[128][16] = {
        {0.196623415f, 0.136025682f, -0.824880481f, 0.261344343f, -0.824713707f, -0.19941397f, -0.473657131f, -0.0149987899f, 0.237433076f, -1.36070633f, 0.240730405f, -0.303754926f, -0.179762766f, -0.1603221f, -0.0979634598f, 0.348905772f},
        {0.364124089f, 0.157037631f, -0.596817672f, -0.00399106136f, -0.855934262f, -0.477949351f, -0.101048701f, 0.216108769f, -0.524077833f, -1.07356811f, -0.63393116f, 0.459785521f, -0.0159555096f, 0.303697973f, 0.536027968f, -1.1228404f},
        {-0.479122669f, 0.206601173f, -0.188879982f, 0.0868049189f, -0.404268205f, -1.28336561f, -0.132357687f, 0.329987019f, 0.359891802f, -0.292623818f, 0.336820126f, 0.175464615f, -0.286525637f, 0.228640079f, 0.48317951f, -0.0565417856f},
        {-1.05279911f, -0.000447465514f, -0.141144052f, -0.10541293f, 0.0946620107f, -0.969212115f, -0.364276499f, 0.24118574f, -0.374228895f, 0.327161103f, -0.579866529f, -0.165220797f, -0.250775754f, -0.731808722f, -0.657842994f, -0.0589025952f},
        {0.147475138f, -0.304980606f, 0.277946651f, -0.201636016f, 0.079734087f, 0.306459188f, 0.752147496f, 0.513834357f, 0.391653687f, 0.450737357f, -0.250477105f, 0.313621104f, 0.236985907f, 0.0143464943f, -0.560302019f, -0.0443270095f},
        {-0.152375847f, 0.139085352f, -0.08121977f, -0.268688262f, -0.337955683f, 0.199407876f, -0.313450545f, 0.631351888f, 0.386440307f, -0.618539274f, -1.10715508f, 0.0870912224f, -0.186363399f, -1.26793468f, -0.0514625832f, 0.854381323f},
        {-0.715380907f, -1.63899386f, -0.0265685301f, -0.326091766f, -0.220549628f, 0.0651585013f, 0.839526474f, -0.1910505f, 0.547314465f, 0.117419682f, 0.0732238069f, 0.54798907f, 0.0162572786f, -0.25398469f, 0.217729494f, 0.379748702f},
        {-0.696458817f, -0.241428971f, 0.997072875f, -0.0932719409f, 0.727666855f, -0.575044096f, -0.172738224f, -1.18741381f, 0.377591163f, 1.13210297f, 0.438556612f, 0.589725494f, -0.416576952f, 0.00984885916f, 0.858146191f, -0.935474396f},
        {-0.179343656f, 0.444423079f, -0.837134778f, 0.443038374f, -0.0297328103f, -0.984781027f, 0.0629367158f, -0.070302017f, 0.229424998f, 0.285778731f, 0.481564462f, -0.625599444f, 0.275407404f, -0.0327371135f, -0.625176191f, -0.336413145f},
        {-0.0929251239f, -1.19885969f, -0.575539112f, -0.0427872576f, -0.525954008f, 0.0705246255f, 0.549575627f, -0.268245101f, 0.491248935f, -0.324864209f, 0.778846681f, -0.175504074f, 0.216287345f, -0.892634511f, 0.692941427f, 0.595869005f},
        {-0.200613573f, -0.681414425f, 0.507720351f, -0.594672143f, 0.115466416f, 0.0161495078f, -0.278381556f, -0.199777901f, 0.636405528f, -0.500290334f, -0.131214216f, -0.0913432762f, 0.613948882f, 0.50556159f, 0.836875677f, 0.582446575f},
        {-0.464040041f, -1.22420335f, -0.404933631f, 0.300902367f, 0.152634561f, -0.606164873f, 0.234032914f, 0.236110225f, -1.78733933f, -0.0258304626f, 0.372838825f, 0.697057843f, 0.170372486f, -0.347097069f, -0.580792665f, -0.646512747f},
        {0.571921349f, -0.415476888f, -0.0365158468f, 0.385064304f, 0.0682538375f, 0.155478284f, -0.141083375f, 0.175424248f, -1.50143218f, 0.0599583387f, 0.259862274f, 0.265457094f, 0.0788073465f, -0.522803485f, 0.255510986f, 0.0450265892f},
        {0.054751981f, -1.1339258f, 0.620451272f, 0.175776675f, 0.0663508475f, -0.0729688779f, -0.325107962f, 0.631434262f, 0.0346495397f, -0.607855916f, -0.241736487f, -1.20478904f, 0.456572771f, 0.138921097f, -0.0977099314f, -0.260810405f},
        {0.397401124f, -0.336946964f, -0.308598846f, -0.73529613f, -0.651119053f, -1.26223564f, -0.624206841f, 0.541877091f, -1.24191594f, -0.603443623f, -0.061141327f, 0.62465018f, 0.163315609f, 0.214412689f, 0.297576129f, -0.386003792f},
        {-0.288074583f, 0.302483827f, 0.101129569f, -0.541411698f, 0.0284199473f, 0.275418937f, -0.808762074f, -0.163181618f, -0.767252445f, -0.787933707f, -0.742321432f, -0.754760385f, -0.0618840903f, -0.686375558f, 0.193512857f, 0.0634111464f},
        {-0.131824642f, -0.0614257716f, 0.108435482f, 0.467238069f, 0.583369493f, -0.2495915f, 0.0186784286f, -0.114305928f, 0.707915962f, -1.26035953f, 0.496979803f, -2.08453536f, 0.315531254f, 0.433807015f, 0.0133306375f, -0.206087321f},
        {-0.229113072f, 0.0663227439f, 0.0664085075f, -0.533347785f, -0.384630263f, -0.431602061f, -0.233117968f, 0.0840475187f, 0.289998531f, 0.11997053f, -0.0806681141f, -0.0462719575f, -0.296254814f, -1.61494982f, -0.489204526f, 0.144406497f},
        {-0.315426767f, 0.294052392f, -0.449433714f, 0.442291558f, -0.181693807f, 0.130440667f, 0.520893693f, -0.401845336f, 0.771681845f, 0.505293846f, -0.374473304f, -0.421950728f, 0.116332687f, 0.135604084f, -0.0915927961f, 0.320886731f},
        {0.543181956f, -0.908975244f, 0.37832579f, 0.235093623f, 0.0123791266f, -0.186721295f, -0.0633667111f, 0.35672307f, -0.0435109213f, -0.0530952029f, 0.114178225f, -0.85142225f, 0.0369802974f, -1.03116453f, -0.36336872f, 0.0399767756f},
        {-0.139695391f, -0.205917075f, -0.378379941f, 0.41679886f, 0.198793247f, -0.619775116f, 0.133690685f, 0.075565435f, -1.27171791f, -1.03594434f, 0.497356474f, 0.362603992f, -0.195664212f, -0.493957251f, 0.421323955f, 0.395995706f},
        {0.683601379f, 0.0558193289f, -0.880631924f, 0.239181817f, 0.134729087f, -0.175804406f, 0.188795269f, 0.258396655f, 0.308923602f, -0.0429450907f, 0.886345804f, 0.296230048f, -0.598845363f, 0.507429302f, 0.332381874f, 0.49538061f},
        {-0.0258267634f, 0.318753004f, -1.23167586f, -1.45671213f, -0.0971747935f, -0.414895594f, 0.563710093f, -1.24513364f, -1.13533068f, 0.765185535f, -0.654158413f, -0.438234597f, 0.440071493f, -0.172016442f, -0.0116719967f, 1.01532376f},
        {0.46538204f, 0.110760435f, -0.0537368394f, 0.261503786f, -0.169608325f, 0.463137031f, -0.300067663f, -0.756279767f, -1.58065236f, 0.2135811f, -0.161156803f, 1.0289017f, -0.555946112f, -0.00174712902f, 0.510322809f, -0.886493385f},
        {0.379617304f, -0.178175375f, 0.1538371f, 0.157944918f, 0.453385651f, 0.110078141f, -0.700064361f, 0.531471252f, -0.410720378f, -0.360828936f, 0.0351306759f, -0.788713455f, 0.092211239f, -0.0471891612f, -0.582071841f, -0.129493758f},
        {0.410490513f, -0.605109036f, -0.757406235f, -0.55987817f, -0.274270147f, -0.264218181f, 0.374333411f, -0.232896104f, -0.467643589f, 0.627182186f, -0.281681031f, 0.276648909f, -0.50565958f, 0.0724329725f, -0.702305615f, -0.0304623023f},
        {-0.0497955941f, 0.629306793f, -0.801574409f, 0.410696715f, -0.342576355f, 0.244157746f, 0.312831312f, -0.291110128f, 0.480104148f, 1.09627962f, -0.680439949f, 0.311005622f, 0.348778009f, 0.329467684f, 0.323213458f, -0.242839694f},
        {0.530253351f, 0.103782915f, -0.165112257f, 0.563691616f, -0.676617801f, 0.360587031f, 0.0268358644f, 0.918955922f, 0.193754017f, -0.0938777477f, -0.857192576f, -0.0198654346f, 0.139241442f, 0.683215857f, -0.213351294f, 0.331229657f},
        {0.676450074f, 0.736066639f, -0.323639035f, 0.203024566f, -0.665295959f, 0.465242356f, -0.151810497f, -0.981976509f, 0.0915463045f, 1.1428721f, -1.12908673f, 0.454634637f, -0.970287979f, -0.270608902f, -0.113669716f, 1.0631808f},
        {0.106061831f, 0.305050284f, 0.364627182f, -0.241727978f, -0.00574876741f, -0.97770679f, -0.932413399f, 0.45860672f, -0.996806979f, -0.632667661f, -1.1723932f, 0.433846146f, -0.182574809f, 0.281312019f, 0.220125273f, -1.27794147f},
        {-0.296083808f, -0.533331871f, -0.261895835f, -0.105192058f, 0.0755332857f, 0.0221894253f, 0.415464342f, -0.453170061f, -1.19760048f, -0.283688307f, 0.409640849f, -0.182591006f, 0.432209313f, 0.0431451984f, 0.0267574918f, -0.271588027f},
        {0.0653792247f, 0.138576061f, 0.137766674f, -0.200091496f, -1.03138947f, -0.588164687f, -0.508580148f, 0.652977765f, -0.348784059f, -0.0738984868f, -0.594465494f, -0.479911536f, -0.990242243f, -0.775671124f, 0.359993577f, -0.882751346f},
        {-0.748906016f, 0.140944824f, 0.232381731f, -0.777481377f, -0.239329159f, 0.088265866f, -0.965621531f, -0.0479803085f, -0.53795594f, 0.179943278f, -1.12364924f, -0.264808238f, 0.0787453502f, -0.976294339f, -0.407659084f, 0.135014996f},
        {0.0525900982f, 0.28918612f, 0.200898647f, 0.151435494f, 0.507347345f, -0.135867819f, -0.467002869f, 0.483015954f, 0.213480234f, 0.45471862f, 0.411434144f, 0.152332067f, 0.49566102f, -0.129072309f, -0.188946515f, -0.470013857f},
        {-0.18585147f, 0.630591989f, -0.110281974f, -0.391955882f, -1.37756622f, 0.128895625f, 0.0315819718f, 0.988417506f, 0.744289815f, 0.00364811998f, -1.21033609f, -0.454546988f, 0.191274077f, -1.33089972f, -1.30958974f, 0.921791077f},
        {-0.907040954f, -0.162448704f, -0.467370838f, -0.569469869f, 0.0726112053f, 0.488121092f, -0.673976839f, -0.0718500614f, -0.68766582f, -0.130404711f, -0.662239432f, -1.0573616f, -0.358541191f, -0.168084443f, 0.382173419f, -0.157376409f},
        {0.48007673f, -0.898747444f, 0.272070706f, -0.548679709f, 0.04942232f, 0.520894349f, -0.0595204197f, 0.274068177f, -0.931433082f, -0.42285943f, -0.553802073f, -0.116542071f, 0.21637553f, 0.167703807f, -0.401569277f, -0.106431052f},
        {-0.0832895562f, -0.443174392f, -0.017715903f, -0.0350349844f, -0.0140777342f, -0.123421907f, 0.344645709f, -0.270269275f, 0.0188770164f, -0.645466149f, 0.0755122527f, -0.180763155f, -0.483681947f, 0.058338277f, 0.118660524f, -0.707917333f},
        {0.331734657f, 0.756524444f, 0.0911125094f, 0.266952306f, 0.700935483f, 0.353117883f, 0.302349299f, 0.00179555558f, 0.480542123f, 0.366369247f, 0.830233335f, 0.715721488f, 0.379557163f, -1.18640125f, -0.94809258f, 0.278096706f},
        {-1.3019892f, -0.921445787f, 0.409522295f, -1.29502702f, -0.254494339f, -0.0105933547f, 1.1112386f, -0.28509137f, 0.167925104f, 0.438930899f, -0.706724226f, 1.09677815f, 0.315167516f, -0.192036003f, -0.142869174f, -0.0249800477f},
        {0.372458637f, -0.102267779f, -0.540486455f, 0.19348143f, 0.10110756f, -0.59185189f, -1.0643096f, 0.229181767f, -0.175263196f, 0.404019117f, 0.548285007f, -0.913876534f, -0.0399183743f, -1.27859247f, 1.14129353f, -0.201450557f},
        {0.633021057f, -0.283139825f, -0.98787266f, 0.0937142447f, 0.445702225f, 0.414000869f, 0.333761722f, -1.08168519f, -0.72875154f, 0.233104974f, -0.196838975f, 1.01678109f, -0.516705215f, -0.377494335f, 0.217248023f, 0.0559890233f},
        {0.538456976f, 0.463125587f, -0.521295249f, 0.159839883f, 0.200868592f, 0.572487235f, -0.164622724f, 0.130885944f, 0.465027422f, -0.703976035f, 0.607541621f, -0.312213391f, -0.269003242f, 0.0162814837f, 0.227926359f, 0.418925494f},
        {0.770091355f, 0.431973249f, -0.484340817f, -0.181650251f, 0.57207787f, 0.708237171f, -0.0156869404f, 0.0455147512f, -0.196101695f, -0.272206634f, -0.225537643f, 0.484848231f, -0.373362005f, -0.156682864f, 0.500390768f, -0.581432402f},
        {-0.28766188f, -0.658361495f, 0.254413277f, -0.0259226114f, 0.0204762854f, 0.193454519f, 0.144696802f, -0.150329366f, 0.260354012f, -0.693842411f, 0.309565276f, 0.324468672f, 0.489722788f, -0.262263387f, 0.0524582155f, 0.408048451f},
        {-0.104388587f, -0.084856458f, 0.119125538f, -0.170854747f, -0.0467804633f, 0.0893827602f, -0.338316709f, 0.163069382f, -1.32929623f, 0.0506511964f, -0.138947323f, 0.0718984976f, -2.08460855f, -1.14682293f, -0.814432502f, 0.344124615f},
        {0.447854221f, 0.0219653584f, -0.810662687f, 0.604896009f, -0.131002322f, -0.175466448f, 0.243666947f, 0.192347497f, -0.425681233f, 0.321652561f, 0.32557404f, -0.423812091f, 1.01869512f, 0.507902682f, -1.09022546f, 0.633311093f},
        {-0.216994211f, 0.38991037f, -1.19863892f, 0.113378927f, -0.967659652f, -0.00419519888f, 0.00446705474f, 0.0420647599f, -0.990275264f, 0.296247214f, 0.0853164867f, 0.14054665f, 0.0185267236f, -0.566466093f, -0.344911575f, 0.314330816f},
        {0.0966273621f, -0.872429848f, -0.641168773f, 0.352411479f, -0.092583932f, -0.392747819f, 0.307767451f, -0.278825849f, -0.00565151125f, -0.597809017f, -0.549337626f, 0.177059606f, -0.480990171f, -0.0165012218f, -0.0494578779f, -0.336875856f},
        {0.233995408f, 0.0771008432f, -0.980543673f, 0.328173727f, 0.0113570588f, -0.436837971f, 0.938756764f, -0.404176325f, -0.201287314f, 0.506682277f, 0.603525102f, 0.227501974f, 0.162588716f, -0.0271155927f, -0.763433278f, 0.168342844f},
        {0.291112721f, -0.208699316f, 0.0194650572f, 0.47179985f, -0.562124252f, 0.332969874f, -0.5536955f, 0.132490993f, 0.36978966f, -0.569494367f, 0.290761471f, 0.695957184f, 1.00545752f, 0.434854418f, -0.0179992542f, -0.409748644f},
        {0.186375543f, 0.0515142046f, -0.216041267f, 0.118328087f, 0.67894876f, 0.501748741f, 0.307756513f, -0.59327507f, 0.320135713f, -0.0041481182f, 0.0848216787f, 0.225329161f, -0.49859947f, -0.765557051f, 0.722591043f, 0.00902764685f},
        {0.409680068f, 0.0366155095f, 0.0514168441f, -0.0351842456f, 0.279570907f, 0.174284786f, 0.41379407f, 0.188699439f, 0.432241648f, 0.436948508f, -0.597610056f, 0.0471471846f, -0.51848346f, 0.568448007f, -0.550498009f, 0.0536953658f},
        {0.918024004f, 0.677731931f, 0.316565394f, -1.28091431f, 0.459076554f, -0.0584530197f, -0.312582552f, 0.186723173f, -0.202700272f, 0.43891269f, 0.210076004f, -0.959042847f, -0.00750114489f, -0.0709511191f, 0.073113203f, 0.288262457f},
        {0.322552115f, -0.677597404f, -0.698524952f, -1.19513237f, -1.23747623f, -0.582058668f, -0.234977975f, -0.649392247f, 0.258607268f, 0.286092371f, -1.30969334f, -0.405548453f, 0.769730628f, 0.137087509f, -0.164537683f, 0.605429113f},
        {-0.13340342f, -1.18422782f, 0.0189827494f, 0.433555454f, 0.360575557f, 0.273766994f, 0.02687186f, 0.314065576f, 0.559809506f, -0.333766788f, 0.218922615f, 0.0627960041f, 0.268368572f, 0.0598769337f, 0.124342211f, 0.0314893313f},
        {-0.119377054f, -0.0749947503f, -0.0859010816f, -1.04769897f, -0.603614748f, 0.153193906f, -0.777671456f, -0.424339294f, -0.803811312f, -1.67619777f, -0.597193062f, -0.101323992f, 0.310846806f, 0.119593941f, -0.181416512f, -0.13481091f},
        {-0.326359719f, 0.018388411f, -0.0908253714f, -0.503090203f, -0.601504266f, -0.0766298771f, -0.227404162f, -0.0495348163f, -0.873969078f, 0.716759861f, -0.724994779f, -0.332390904f, 0.129716948f, -1.46114826f, -0.773133278f, -0.194109589f},
        {-0.245747685f, 0.134854913f, 0.53772366f, -0.193535686f, -0.0063161673f, -0.239613593f, -0.655448139f, -0.84794122f, 0.122668326f, 0.178139314f, 0.0916777402f, 0.340604991f, -0.51791364f, -0.406685501f, -0.512796521f, -0.679113209f},
        {0.470801562f, -0.444886446f, 1.11939466f, -0.0166124105f, -0.705957294f, 0.496574938f, 0.930489719f, 0.476216525f, 0.0876305252f, 0.28655678f, -0.102691926f, -1.13781977f, -0.762196183f, -0.368595481f, -0.480998755f, 1.04902899f},
        {-0.225508869f, 0.05319231f, 0.25585565f, -0.224701196f, -1.12935376f, -0.335908741f, -0.835119426f, -0.0666574538f, -0.61440599f, -0.948069572f, -0.0809252039f, -0.594008386f, 0.204168096f, -0.457899332f, -0.199997991f, 0.200825378f},
        {0.358206004f, -0.141727105f, -0.239078999f, 0.371187121f, -0.843040049f, 0.795588315f, -0.859030426f, 0.804566026f, 0.643557906f, -1.79137611f, -0.790705144f, -1.26204991f, -0.842039227f, -0.0178147033f, -1.3557291f, -0.104802012f},
        {-0.0775143728f, -1.18959582f, 0.424436152f, -0.310333163f, -0.0824593157f, 0.159512296f, -1.3799566f, -0.29275915f, 0.0389852785f, -0.560294032f, -0.0494437553f, 0.616268694f, 0.302508473f, -1.89943063f, 0.366388589f, -0.703032672f},
        {0.269621879f, 0.049515944f, -0.985389769f, -1.26517379f, -0.763866067f, -0.286116451f, 0.136653349f, 0.133851632f, -1.32785523f, 0.22067754f, -0.618287981f, 0.479222178f, -0.105907612f, 0.0117476527f, -0.28599903f, -0.146438748f},
        {-0.273862451f, -0.813003421f, -0.10223303f, 0.769736052f, -0.144721702f, -0.125711247f, 0.0738180578f, 0.0282630473f, 0.00353070581f, -0.973582983f, 0.617150664f, -0.160615355f, -0.354387999f, 0.862659693f, 0.403044581f, 0.372478276f},
        {0.117907152f, -0.170016766f, 0.0231272075f, -0.251686096f, 0.206345588f, -0.0547906794f, -0.10191682f, -0.1835078f, 0.453069568f, -0.734274805f, 0.461257428f, -0.768436491f, -0.132207721f, -0.222465649f, 0.0816922262f, -0.83305949f},
        {0.149582803f, 0.140417963f, -1.71968853f, -0.921263993f, -0.139073133f, 0.384621531f, 0.287617296f, -0.111467332f, 0.405347794f, -0.13634789f, -0.379750013f, -0.0391970463f, 0.0473158732f, 0.824507594f, 0.135443196f, 0.0543866046f},
        {-0.331277311f, 1.00429523f, -0.513932586f, -0.301439196f, -0.643379509f, 0.157382682f, 0.171439677f, -0.572754681f, -0.105735041f, 0.379977107f, -1.55306268f, 0.510494471f, -0.190341666f, -0.469972759f, -0.700812995f, -0.167136624f},
        {-0.435467511f, 0.00449002814f, -0.21170041f, -0.679037213f, -1.03157437f, 0.0266664065f, 0.315078765f, 0.168865174f, -1.01901376f, -0.0395787805f, -0.181330234f, 0.340864241f, -0.362469941f, -0.0544497333f, 0.64055568f, 0.190902784f},
        {0.393035054f, -0.709893823f, 0.359116524f, 1.01166141f, -0.153054133f, 0.425160408f, -0.464034736f, 0.858864546f, -0.0568069294f, -0.0127569186f, -1.54483771f, -0.242946252f, -0.591777623f, -0.516566455f, -0.23675029f, -0.302475393f},
        {0.517381907f, -0.919145048f, 0.162025928f, -0.648406684f, 0.0378836207f, 0.638504088f, 0.104065128f, 0.147528097f, -1.06457961f, -0.179315984f, -0.900329113f, 0.43218863f, 0.634051263f, -0.321205348f, -1.61167777f, -0.0762459785f},
        {0.247015357f, -0.279720277f, -0.688691199f, 0.297905564f, 0.638795674f, -0.0342807621f, 0.133296072f, 0.283239782f, -0.296908796f, -0.280407101f, 0.15344888f, 0.613798261f, 0.143296853f, -0.359883517f, 0.467616081f, 0.403447896f},
        {-0.0829970092f, 0.0547617823f, -0.162706658f, -0.29025358f, -0.429372102f, -0.689302921f, -1.09487021f, 0.131886467f, 0.525042474f, -0.164705426f, -0.950347245f, -0.162280798f, -1.5696758f, -0.680977285f, -0.0720721036f, -1.04826045f},
        {0.0720518678f, 0.372567117f, -0.22716181f, -0.400557041f, -0.685177982f, -0.516191661f, -0.539159298f, 0.286916554f, -0.609707057f, -1.10611439f, -0.0136975478f, 0.00852587726f, -0.943293333f, -0.1204198f, 0.350580573f, -0.812976658f},
        {0.455631912f, 0.301919758f, 0.118397325f, 0.409127504f, -1.28919327f, 0.203357562f, 0.401205301f, 0.299477458f, -0.27697888f, 0.28399235f, 0.390517831f, -1.03838146f, -0.402424514f, -0.833297849f, -0.615543425f, 0.295805484f},
        {-0.175418288f, -0.141268387f, -1.49221992f, 0.536846757f, -0.336522341f, -0.257658213f, 0.401794255f, -0.0365036167f, -0.18120876f, 0.0287031494f, 0.587075531f, 0.0316429064f, 0.454363227f, 0.751177669f, -0.389289021f, 0.0377640836f},
        {-0.446299613f, 0.440901726f, 0.0685353801f, -0.799866676f, -0.592724323f, 0.101452172f, 0.0198943391f, -0.483634681f, -0.22314775f, -0.234985992f, -0.341355264f, 0.177406922f, -0.462612331f, 0.525563598f, 0.30143863f, -0.116538532f},
        {-0.243071601f, -1.15869057f, 0.0925030857f, 0.432465672f, 0.424323261f, -0.266328603f, 0.368023396f, -0.497034937f, -0.180136546f, -0.263223916f, 0.38342005f, 0.868757784f, 0.317738563f, -0.249388009f, 0.301437199f, 0.738011122f},
        {-0.492809713f, -0.531386554f, -0.191486731f, 0.504646301f, 0.81188035f, 0.281044483f, 0.00202974211f, -0.425146312f, -0.836152613f, 0.265132278f, 0.852304161f, 0.245978549f, 0.174185976f, -0.085252583f, 1.23932135f, 0.381431282f},
        {0.0644017011f, 0.930439115f, 0.445069671f, 0.330240399f, 0.809040546f, 0.452970833f, -0.650091946f, -0.593668163f, 0.262259126f, -0.841881573f, 0.459338695f, 0.457145989f, -0.339699507f, -0.222350374f, 0.683981359f, 0.279957294f},
        {-0.452992469f, -0.0980377495f, -0.325756282f, -1.45335841f, -1.03552508f, 0.0566489436f, 0.279301286f, -0.274520695f, 0.584901273f, 1.24847031f, -0.693935096f, -1.55778348f, 0.748754501f, 0.962996364f, 0.622274101f, 0.210540831f},
        {0.0948606059f, -1.07049835f, 0.333203286f, -0.862814128f, 0.124095798f, 0.169073746f, 0.390131414f, 0.0877715424f, 0.199232683f, 0.0978915244f, -1.27988577f, -0.0129635315f, -0.376147687f, 0.423197269f, -0.61060977f, 0.057417959f},
        {-0.675790966f, 0.76510644f, -0.640551448f, -0.564607799f, -0.203031436f, 0.709550679f, 0.843619108f, -0.408532709f, -0.27129823f, 0.301706344f, 0.0859266371f, 0.381496131f, 0.0274633262f, 0.118061282f, 0.234088376f, 0.550204873f},
        {-0.146678433f, -0.123790465f, 0.792004347f, -0.622740388f, -0.167109102f, 0.111636132f, 0.81334877f, 0.184568331f, -0.807283163f, 0.153331876f, -0.250784367f, 0.225672126f, 0.350238234f, -0.0336643308f, 0.107781269f, 1.16923392f},
        {-0.906318188f, 0.439278096f, -1.24164057f, 0.142172441f, 0.261935949f, -0.584880888f, 0.105298445f, 0.261311918f, -0.656934977f, 0.37669304f, 0.578972995f, -0.814065754f, -0.835256934f, -0.0575856902f, -0.0698422343f, 0.370401174f},
        {-0.0255438834f, -1.16844714f, -0.0505735353f, -0.30613479f, 0.385628432f, 0.141117811f, -0.0625411421f, -0.539630413f, -0.22722581f, 0.533561647f, -0.488576561f, 0.536184907f, -0.21585317f, 0.24577643f, -0.754934311f, -0.317578793f},
        {0.573075652f, 0.463326156f, -0.813216448f, -0.501988411f, 0.535566986f, 0.947450757f, -0.838436544f, -0.405893713f, -0.440116078f, -0.129678562f, -0.576114655f, 0.181998312f, -0.811008871f, -0.217984721f, -0.856543124f, -0.0343092307f},
        {-0.118253f, -0.124800481f, 0.459477484f, -0.123130389f, -1.28239584f, -0.364872128f, 0.0984992087f, 0.128201708f, -1.30308628f, 0.192817345f, -0.323448777f, 0.06256257f, 0.26651597f, 0.159401193f, -1.48220837f, 0.149870723f},
        {-0.397733867f, 0.776372135f, -0.145786017f, -0.408109546f, -0.069784835f, -0.565125465f, -0.117047571f, -0.06649822f, 0.702208936f, 0.691684723f, -0.488085717f, 0.136960387f, 0.886077344f, -0.984540224f, -0.907573938f, -0.0797764063f},
        {0.441805333f, -0.282585621f, 0.339281231f, -0.885126293f, -0.87391597f, -0.30599308f, -0.5312832f, -0.0695015416f, 0.141960844f, -1.63114142f, -0.228347629f, -0.11300461f, -0.411429584f, -1.18740499f, 0.156518266f, -0.538822234f},
        {-0.0707257241f, -0.331064731f, 0.204153672f, -0.177712306f, 0.295849919f, 0.38738066f, 0.717606604f, 0.0768870041f, -0.414077044f, 0.53150934f, 0.661378026f, 1.32138574f, 0.824056089f, -0.442473978f, 0.779818118f, -0.603279471f},
        {0.38079986f, 0.137459159f, 0.0864315033f, -0.65862751f, -0.0600285977f, 0.0706537589f, -0.359990954f, -0.283183664f, -0.315544724f, 0.544535339f, -1.47058725f, 0.232927352f, -0.100398786f, -0.162577912f, -0.208350897f, -0.626663208f},
        {0.26573804f, 0.323380798f, -0.0447540805f, 0.228854507f, -0.736856937f, -1.10960686f, 0.134608388f, 0.261065423f, -0.822163165f, -0.19428806f, -0.628551066f, -0.446034104f, -0.0891182646f, -0.0620243847f, -0.213665187f, 0.478775471f},
        {-0.126400873f, -0.460843712f, 0.51954633f, -0.447790563f, -0.350573063f, -0.231717929f, -0.43215093f, -0.0636317879f, -0.0486222692f, -0.470066607f, -0.0472426936f, 0.396223545f, 0.732643783f, -0.424778134f, -0.654750288f, 0.0702941269f},
        {-0.0209176764f, 0.377981216f, -0.387602985f, 0.35444051f, 0.242361248f, 0.379511029f, -0.901593685f, -0.775361657f, -0.188979134f, 0.230662286f, 0.288520157f, 0.255236804f, -0.344707519f, 0.135819361f, 0.0308717489f, -0.924145401f},
        {0.418285191f, -0.0996536463f, -0.89924407f, -0.565109015f, 0.655604422f, 0.430154145f, 0.311498433f, 0.66984874f, 0.657533526f, 0.0454839692f, -0.0264721718f, 0.538202763f, 0.238703564f, -0.155134842f, -1.54507899f, 0.366796404f},
        {-0.66985172f, -2.16718984f, -1.16654384f, 0.615222216f, 0.0340204164f, -0.0609566085f, 0.730141699f, 0.376978278f, -1.41841066f, 0.347205907f, 0.395881772f, 0.500679791f, 0.0842873827f, -0.0785603672f, 0.221093297f, -0.16526641f},
        {0.0828760564f, -0.676588416f, 0.525361121f, -0.0486885868f, 0.301622123f, 0.431089759f, -0.0718204603f, 0.292602926f, 0.596918643f, 0.267033458f, -0.0961108208f, -0.301774442f, 0.158450812f, -0.219250813f, -0.891655505f, -0.396375f},
        {0.758608103f, -0.371909946f, -0.206534743f, -0.760965168f, -1.50154316f, 0.266730726f, 0.112384543f, 0.22397469f, 0.234461322f, -0.341633707f, -0.693524957f, -0.889422059f, 0.659965396f, 0.990353703f, 0.00620388379f, 0.536651433f},
        {-0.156243041f, -0.212662473f, 0.75403142f, -0.150690287f, 0.373006284f, -0.14254494f, 0.361733347f, -0.261036396f, -0.896945536f, 0.183899894f, -0.694485605f, 0.214457005f, 0.481264234f, -1.14401412f, -0.576620102f, 0.269086719f},
        {-0.0644392148f, 0.344152033f, -0.201454401f, -0.666587472f, 0.33330363f, -0.0456733257f, -0.462444752f, -0.235532284f, -0.616217077f, -0.15020074f, -0.158240646f, 1.08986139f, 0.550818324f, -0.0168675594f, -0.623184383f, -0.749103844f},
        {-0.0627138093f, 0.136095136f, -0.652379572f, -0.375917435f, -0.355461717f, -1.32261193f, -0.129239261f, -0.769387901f, 0.246450111f, 0.540045738f, 0.804504633f, 0.858743846f, 0.809733748f, 0.83345139f, 0.395317584f, -0.2229992f},
        {0.161347583f, 0.70988816f, -0.565840065f, 0.0592132322f, -0.136131033f, -0.694084525f, -0.682188511f, -0.279210716f, -0.42106545f, 0.640452564f, -0.350622475f, 0.0177009664f, -0.396129966f, -0.316594779f, -0.16878064f, 0.108120859f},
        {-0.438028336f, 0.440327674f, 0.30417797f, 0.439011693f, -0.18992497f, 0.304061234f, 0.649355114f, -0.22272855f, -0.641207039f, -0.111289926f, 0.36068061f, 0.475642562f, -0.287072033f, 0.349110246f, 0.168300584f, 0.0738783777f},
        {0.00810033083f, -0.0829534307f, 0.080431439f, 0.467060775f, 0.2880086f, -0.6594432f, -0.670253754f, -0.246500701f, -0.120426722f, -0.234178841f, -0.0835768655f, -1.70493078f, 0.146636143f, -0.824464977f, 0.217418864f, 0.00771644339f},
        {0.00381800346f, 0.197135016f, -2.16746283f, 0.589753568f, 0.445365995f, -0.191275269f, -0.269069403f, 0.16986151f, -0.94687885f, 0.417034864f, 0.832917392f, -0.210834235f, 0.749688327f, 0.383447438f, 0.271312505f, -0.518888295f},
        {-0.649354041f, 0.160432965f, -0.29953894f, 0.49651131f, -0.070113726f, -1.00382304f, -0.0189551264f, -0.0748056918f, 0.617458999f, 0.121063299f, 0.426293522f, -0.213202536f, -0.421269834f, 0.840969384f, -0.0696895644f, 0.449573517f},
        {0.147420928f, 0.160254344f, 0.211742908f, -0.500290215f, 0.912067533f, 0.472238243f, 0.58496362f, -0.0778691843f, 0.525790691f, 0.764106095f, 0.334165066f, -0.291492492f, -0.117847495f, -0.832012534f, -0.606687665f, -0.0335117802f},
        {0.699136674f, 0.634640694f, -0.689402878f, -1.44926131f, 0.242841318f, -0.0119505944f, 1.16519976f, -0.670377731f, -0.71542269f, 0.915348113f, -0.38536486f, 0.49250862f, 0.053956572f, 0.547944129f, -0.734653294f, 0.518554568f},
        {0.180528045f, 0.18795836f, 0.414781332f, 0.491802305f, 0.459686905f, 0.0270085502f, -0.518340409f, 0.352159739f, 0.0454415977f, -0.335963249f, 0.2184681f, -0.501230121f, 0.128667474f, 0.0439300798f, 0.295711905f, -0.48619324f},
        {0.409974128f, -0.0278343018f, -0.370671302f, -0.184975713f, -0.638666749f, 0.529731393f, 0.241137788f, -0.797507107f, -1.10472345f, -0.349318206f, 0.0191960596f, 0.838930428f, -0.0308498368f, -0.257334411f, 0.791708469f, 0.0351874903f},
        {-0.345886737f, -0.442166954f, 0.47977981f, 0.289745063f, 0.237510398f, 0.278258353f, 0.649202585f, 0.123015597f, -1.5405848f, 0.469793141f, 0.214402065f, 0.306080937f, -0.111606188f, 0.159756079f, -0.000223958996f, -0.186552852f},
        {0.196533635f, -0.852192223f, -0.181266919f, -0.587025344f, -0.319980025f, -0.718503654f, -1.48496795f, -0.240121171f, -0.084719114f, -1.60924745f, -0.339105338f, 0.0242992006f, 0.154713631f, -0.283268183f, -0.0791496113f, -1.57310665f},
        {0.422133505f, 0.0169438869f, 0.0754926652f, 0.382876664f, -0.412821263f, -0.11782217f, 0.559329212f, 0.519782662f, 0.0392266028f, 0.183299661f, 0.162301853f, -0.734255373f, 0.100825131f, 0.180360094f, -0.0351191796f, 0.198725984f},
        {0.122583084f, 0.307804316f, -0.271588564f, -1.04002488f, -1.51724494f, -0.229209468f, 0.222431511f, -0.384522021f, -1.38601589f, -0.0755919591f, -0.111780562f, 0.737008214f, -1.31241679f, -0.352722019f, 0.0737233907f, -0.52912277f},
        {-0.259094775f, 0.518392444f, -0.617044747f, 0.348249614f, 0.163739517f, -0.146341458f, -0.916031301f, 0.533885181f, -0.586600721f, 0.397701085f, -0.402857929f, 0.000181879615f, -0.889374256f, -0.79501754f, -0.510646284f, 0.135843128f},
        {0.30948028f, -0.0694902837f, -0.942474246f, -0.712873459f, -1.20934641f, 0.0117465081f, 0.527975798f, -0.061547827f, -0.569695532f, 0.662599087f, -0.585287154f, 0.127857149f, 0.378587931f, 0.749403417f, -0.54757607f, 0.264149576f},
        {-0.829600096f, 0.382801294f, -1.5814507f, 0.864881814f, 0.646390557f, -0.46566087f, -0.477016181f, -0.266483545f, -0.413271695f, 0.638815105f, 0.345983535f, -0.0221474692f, -0.172874004f, -0.0652629212f, 0.289295614f, -0.496091843f},
        {0.0883253738f, 0.151128948f, -0.831153631f, 0.0888259634f, -0.285659254f, 0.0525432229f, 0.00864541251f, -0.075988628f, -0.237392247f, -1.29285336f, -0.732638597f, -0.0537738912f, 0.287122577f, 0.124700889f, 0.511152089f, 0.0771991313f},
        {-0.215163127f, -0.841590464f, 0.0285990518f, -0.73754853f, -0.417405665f, -0.589544773f, 0.156160012f, -0.284543425f, 0.0536424704f, 0.116354503f, -0.755711436f, -0.0104582096f, -1.47571719f, 0.290870845f, -0.251281291f, 0.0708609968f},
        {0.573892653f, -0.275098979f, -0.0373815931f, 0.634374201f, 0.616790652f, 0.577692509f, 0.0892284065f, -0.23890245f, 0.250358462f, 0.115520641f, 0.125721574f, 0.92151922f, 0.701759398f, -0.556323707f, 0.651443839f, 0.110688709f},
        {1.04760575f, -0.146469131f, 0.326276779f, -0.842505515f, -0.723315179f, 0.632529259f, -0.859240115f, 0.602213562f, -0.965817451f, 0.0231562145f, -0.818168044f, -0.494249672f, -0.63845408f, -0.922443449f, -0.197467119f, -0.770458341f},
        {0.0323399529f, 0.260550439f, 0.241481349f, -0.652293384f, -0.871288002f, 0.00527614728f, -0.684253752f, 0.167186335f, -0.0543782413f, 0.224263072f, -0.972197115f, -0.046023991f, -0.288433731f, -0.573229074f, -0.291549653f, -0.433271229f},
        {0.631305218f, -0.0470779203f, 0.134847715f, 0.0657753199f, -0.711944878f, 0.102254204f, 0.272844195f, 0.170637548f, -0.465082735f, -0.176556289f, -0.00564877922f, 0.964226723f, 0.601080179f, -0.403463513f, -0.435401827f, 0.380987525f},
